<?xml version="1.0"?>
<MethodSetup Method="BDT::BDTG">
  <GeneralInfo>
    <Info name="TMVA Release" value="4.2.1 [262657]"/>
    <Info name="ROOT Release" value="6.12/07 [396295]"/>
    <Info name="Creator" value="rgoldouz"/>
    <Info name="Date" value="Sun Mar 20 06:48:37 2022"/>
    <Info name="Host" value="Linux cmsbuild90.cern.ch 2.6.32-696.30.1.el6.x86_64 #1 SMP Tue May 22 06:09:36 CEST 2018 x86_64 x86_64 x86_64 GNU/Linux"/>
    <Info name="Dir" value="/afs/crc.nd.edu/user/r/rgoldouz/BNV/NanoAnalysis/MVA"/>
    <Info name="Training events" value="1436856"/>
    <Info name="TrainingTime" value="1.70211959e+03"/>
    <Info name="AnalysisType" value="Classification"/>
  </GeneralInfo>
  <Options>
    <Option name="V" modified="Yes">False</Option>
    <Option name="VerbosityLevel" modified="No">Default</Option>
    <Option name="VarTransform" modified="No">None</Option>
    <Option name="H" modified="Yes">False</Option>
    <Option name="CreateMVAPdfs" modified="No">False</Option>
    <Option name="IgnoreNegWeightsInTraining" modified="Yes">True</Option>
    <Option name="NTrees" modified="Yes">1000</Option>
    <Option name="MaxDepth" modified="Yes">2</Option>
    <Option name="MinNodeSize" modified="Yes">2.5%</Option>
    <Option name="nCuts" modified="Yes">20</Option>
    <Option name="BoostType" modified="Yes">Grad</Option>
    <Option name="AdaBoostR2Loss" modified="No">quadratic</Option>
    <Option name="UseBaggedBoost" modified="Yes">True</Option>
    <Option name="Shrinkage" modified="Yes">1.000000e-01</Option>
    <Option name="AdaBoostBeta" modified="No">5.000000e-01</Option>
    <Option name="UseRandomisedTrees" modified="No">False</Option>
    <Option name="UseNvars" modified="No">3</Option>
    <Option name="UsePoissonNvars" modified="No">True</Option>
    <Option name="BaggedSampleFraction" modified="Yes">5.000000e-01</Option>
    <Option name="UseYesNoLeaf" modified="No">True</Option>
    <Option name="NegWeightTreatment" modified="No">pray</Option>
    <Option name="Css" modified="No">1.000000e+00</Option>
    <Option name="Cts_sb" modified="No">1.000000e+00</Option>
    <Option name="Ctb_ss" modified="No">1.000000e+00</Option>
    <Option name="Cbb" modified="No">1.000000e+00</Option>
    <Option name="NodePurityLimit" modified="No">5.000000e-01</Option>
    <Option name="SeparationType" modified="No">giniindex</Option>
    <Option name="RegressionLossFunctionBDTG" modified="No">huber</Option>
    <Option name="HuberQuantile" modified="No">7.000000e-01</Option>
    <Option name="DoBoostMonitor" modified="No">False</Option>
    <Option name="UseFisherCuts" modified="No">False</Option>
    <Option name="MinLinCorrForFisher" modified="No">8.000000e-01</Option>
    <Option name="UseExclusiveVars" modified="No">False</Option>
    <Option name="DoPreselection" modified="No">False</Option>
    <Option name="SigToBkgFraction" modified="No">1.000000e+00</Option>
    <Option name="PruneMethod" modified="No">nopruning</Option>
    <Option name="PruneStrength" modified="No">0.000000e+00</Option>
    <Option name="PruningValFraction" modified="No">5.000000e-01</Option>
    <Option name="SkipNormalization" modified="No">False</Option>
    <Option name="nEventsMin" modified="No">0</Option>
    <Option name="UseBaggedGrad" modified="No">False</Option>
    <Option name="GradBaggingFraction" modified="No">5.000000e-01</Option>
    <Option name="UseNTrainEvents" modified="No">0</Option>
    <Option name="NNodesMax" modified="No">0</Option>
  </Options>
  <Variables NVar="10">
    <Variable VarIndex="0" Expression="lep1Pt" Label="lep1Pt" Title="lep1Pt" Unit="GeV" Internal="lep1Pt" Type="F" Min="2.50006351e+01" Max="3.01234106e+03"/>
    <Variable VarIndex="1" Expression="lep2Pt" Label="lep2Pt" Title="lep2Pt" Unit="GeV" Internal="lep2Pt" Type="F" Min="2.00000019e+01" Max="2.63200879e+03"/>
    <Variable VarIndex="2" Expression="llM" Label="llM" Title="llM" Unit="GeV" Internal="llM" Type="F" Min="2.00004234e+01" Max="5.45375146e+03"/>
    <Variable VarIndex="3" Expression="llPt" Label="llPt" Title="llPt" Unit="GeV" Internal="llPt" Type="F" Min="1.57731865e-02" Max="2.82139868e+03"/>
    <Variable VarIndex="4" Expression="llDr" Label="llDr" Title="llDr" Unit="" Internal="llDr" Type="F" Min="2.00202614e-01" Max="5.66354370e+00"/>
    <Variable VarIndex="5" Expression="llDphi" Label="llDphi" Title="llDphi" Unit="" Internal="llDphi" Type="F" Min="0.00000000e+00" Max="3.14158630e+00"/>
    <Variable VarIndex="6" Expression="topL1Dphi" Label="topL1Dphi" Title="topL1Dphi" Unit="" Internal="topL1Dphi" Type="F" Min="2.67559408e-05" Max="3.14159250e+00"/>
    <Variable VarIndex="7" Expression="topL1Dr" Label="topL1Dr" Title="topL1Dr" Unit="" Internal="topL1Dr" Type="F" Min="2.76318914e-03" Max="1.01652765e+01"/>
    <Variable VarIndex="8" Expression="topL1DptOsumPt" Label="topL1DptOsumPt" Title="topL1DptOsumPt" Unit="" Internal="topL1DptOsumPt" Type="F" Min="1.28378541e-09" Max="9.99010444e-01"/>
    <Variable VarIndex="9" Expression="topPt" Label="topPt" Title="topPt" Unit="GeV" Internal="topPt" Type="F" Min="4.82312217e-02" Max="2.91092944e+03"/>
  </Variables>
  <Spectators NSpec="0"/>
  <Classes NClass="2">
    <Class Name="Background" Index="0"/>
    <Class Name="Signal" Index="1"/>
  </Classes>
  <Transformations NTransformations="0"/>
  <MVAPdfs/>
  <Weights NTrees="1000" AnalysisType="1">
    <BinaryTree type="DecisionTree" boostWeight="1.0000000000000000e+00" itree="0">
      <Node pos="s" depth="0" NCoef="0" IVar="0" Cut="1.4398536682128906e+02" cType="1" res="-2.2837289143353701e-03" rms="4.9999478459358215e-01" purity="4.9771627783775330e-01" nType="0">
        <Node pos="l" depth="1" NCoef="0" IVar="0" Cut="1.0432376861572266e+02" cType="1" res="-3.4114998579025269e-01" rms="3.6553618311882019e-01" purity="1.5885002911090851e-01" nType="0">
          <Node pos="l" depth="2" NCoef="0" IVar="-1" Cut="0.0000000000000000e+00" cType="1" res="-7.8493520617485046e-02" rms="3.0978891253471375e-01" purity="1.0753239691257477e-01" nType="-99"/>
          <Node pos="r" depth="2" NCoef="0" IVar="-1" Cut="0.0000000000000000e+00" cType="1" res="-3.3055856823921204e-02" rms="4.7189274430274963e-01" purity="3.3472073078155518e-01" nType="-99"/>
        </Node>
        <Node pos="r" depth="1" NCoef="0" IVar="0" Cut="2.5730401611328125e+02" cType="1" res="3.9312899112701416e-01" rms="3.0894920229911804e-01" purity="8.9312899112701416e-01" nType="0">
          <Node pos="l" depth="2" NCoef="0" IVar="-1" Cut="0.0000000000000000e+00" cType="1" res="4.6758428215980530e-02" rms="4.4197425246238708e-01" purity="7.3379218578338623e-01" nType="-99"/>
          <Node pos="r" depth="2" NCoef="0" IVar="-1" Cut="0.0000000000000000e+00" cType="1" res="9.6841461956501007e-02" rms="1.2467271089553833e-01" purity="9.8420733213424683e-01" nType="-99"/>
        </Node>
      </Node>
    </BinaryTree>
    <BinaryTree type="DecisionTree" boostWeight="1.0000000000000000e+00" itree="1">
      <Node pos="s" depth="0" NCoef="0" IVar="0" Cut="1.6341970825195312e+02" cType="1" res="-8.4307260112836957e-04" rms="4.7167620062828064e-01" purity="4.9891820549964905e-01" nType="0">
        <Node pos="l" depth="1" NCoef="0" IVar="0" Cut="1.1068932342529297e+02" cType="1" res="-2.8365296125411987e-01" rms="3.8388070464134216e-01" purity="1.8617075681686401e-01" nType="0">
          <Node pos="l" depth="2" NCoef="0" IVar="-1" Cut="0.0000000000000000e+00" cType="1" res="-6.9540254771709442e-02" rms="3.2029327750205994e-01" purity="1.1645409464836121e-01" nType="-99"/>
          <Node pos="r" depth="2" NCoef="0" IVar="-1" Cut="0.0000000000000000e+00" cType="1" res="-1.6367860138416290e-02" rms="4.8976120352745056e-01" purity="4.1317847371101379e-01" nType="-99"/>
        </Node>
        <Node pos="r" depth="1" NCoef="0" IVar="9" Cut="2.3053395080566406e+02" cType="1" res="3.8510137796401978e-01" rms="2.5861728191375732e-01" purity="9.2571777105331421e-01" nType="0">
          <Node pos="l" depth="2" NCoef="0" IVar="-1" Cut="0.0000000000000000e+00" cType="1" res="5.3311064839363098e-02" rms="4.0307453274726868e-01" purity="7.9399383068084717e-01" nType="-99"/>
          <Node pos="r" depth="2" NCoef="0" IVar="-1" Cut="0.0000000000000000e+00" cType="1" res="8.6312457919120789e-02" rms="1.6018895804882050e-01" purity="9.7293907403945923e-01" nType="-99"/>
        </Node>
      </Node>
    </BinaryTree>
    <BinaryTree type="DecisionTree" boostWeight="1.0000000000000000e+00" itree="2">
      <Node pos="s" depth="0" NCoef="0" IVar="0" Cut="1.6725537109375000e+02" cType="1" res="1.3622182887047529e-03" rms="4.4730967283248901e-01" purity="5.0120586156845093e-01" nType="0">
        <Node pos="l" depth="1" NCoef="0" IVar="0" Cut="1.1306238555908203e+02" cType="1" res="-2.4887402355670929e-01" rms="3.8580527901649475e-01" purity="1.9426228106021881e-01" nType="0">
          <Node pos="l" depth="2" NCoef="0" IVar="-1" Cut="0.0000000000000000e+00" cType="1" res="-6.2969051301479340e-02" rms="3.2456687092781067e-01" purity="1.2032309919595718e-01" nType="-99"/>
          <Node pos="r" depth="2" NCoef="0" IVar="-1" Cut="0.0000000000000000e+00" cType="1" res="-1.0376370511949062e-02" rms="4.9237638711929321e-01" purity="4.3930175900459290e-01" nType="-99"/>
        </Node>
        <Node pos="r" depth="1" NCoef="0" IVar="0" Cut="3.0273870849609375e+02" cType="1" res="3.5256922245025635e-01" rms="2.4651695787906647e-01" purity="9.3200170993804932e-01" nType="0">
          <Node pos="l" depth="2" NCoef="0" IVar="-1" Cut="0.0000000000000000e+00" cType="1" res="5.7040791958570480e-02" rms="3.5927498340606689e-01" purity="8.4449404478073120e-01" nType="-99"/>
          <Node pos="r" depth="2" NCoef="0" IVar="-1" Cut="0.0000000000000000e+00" cType="1" res="8.3067178726196289e-02" rms="9.0411618351936340e-02" purity="9.9168270826339722e-01" nType="-99"/>
        </Node>
      </Node>
    </BinaryTree>
    <BinaryTree type="DecisionTree" boostWeight="1.0000000000000000e+00" itree="3">
      <Node pos="s" depth="0" NCoef="0" IVar="0" Cut="1.5878503417968750e+02" cType="1" res="1.0477219475433230e-03" rms="4.2653524875640869e-01" purity="5.0144159793853760e-01" nType="0">
        <Node pos="l" depth="1" NCoef="0" IVar="6" Cut="2.6927974224090576e+00" cType="1" res="-2.3556813597679138e-01" rms="3.7399500608444214e-01" purity="1.7975495755672455e-01" nType="0">
          <Node pos="l" depth="2" NCoef="0" IVar="-1" Cut="0.0000000000000000e+00" cType="1" res="-6.6298753023147583e-02" rms="2.8051626682281494e-01" purity="8.8887125253677368e-02" nType="-99"/>
          <Node pos="r" depth="2" NCoef="0" IVar="-1" Cut="0.0000000000000000e+00" cType="1" res="-2.9203910380601883e-02" rms="4.3804132938385010e-01" purity="2.8175196051597595e-01" nType="-99"/>
        </Node>
        <Node pos="r" depth="1" NCoef="0" IVar="0" Cut="2.8619891357421875e+02" cType="1" res="3.0836403369903564e-01" rms="2.6343998312950134e-01" purity="9.1924768686294556e-01" nType="0">
          <Node pos="l" depth="2" NCoef="0" IVar="-1" Cut="0.0000000000000000e+00" cType="1" res="4.6704765409231186e-02" rms="3.8770824670791626e-01" purity="8.0996024608612061e-01" nType="-99"/>
          <Node pos="r" depth="2" NCoef="0" IVar="-1" Cut="0.0000000000000000e+00" cType="1" res="7.7211916446685791e-02" rms="1.0389447212219238e-01" purity="9.8894929885864258e-01" nType="-99"/>
        </Node>
      </Node>
    </BinaryTree>
    <BinaryTree type="DecisionTree" boostWeight="1.0000000000000000e+00" itree="4">
      <Node pos="s" depth="0" NCoef="0" IVar="0" Cut="1.5878503417968750e+02" cType="1" res="-8.8233553105965257e-04" rms="4.0901422500610352e-01" purity="4.9884921312332153e-01" nType="0">
        <Node pos="l" depth="1" NCoef="0" IVar="0" Cut="9.5077774047851562e+01" cType="1" res="-2.1236260235309601e-01" rms="3.7185785174369812e-01" purity="1.7978703975677490e-01" nType="0">
          <Node pos="l" depth="2" NCoef="0" IVar="-1" Cut="0.0000000000000000e+00" cType="1" res="-5.8970447629690170e-02" rms="2.9369676113128662e-01" purity="9.6282087266445160e-02" nType="-99"/>
          <Node pos="r" depth="2" NCoef="0" IVar="-1" Cut="0.0000000000000000e+00" cType="1" res="-1.8852809444069862e-02" rms="4.6445581316947937e-01" purity="3.3957552909851074e-01" nType="-99"/>
        </Node>
        <Node pos="r" depth="1" NCoef="0" IVar="6" Cut="2.6928193569183350e+00" cType="1" res="2.7721711993217468e-01" rms="2.6323959231376648e-01" purity="9.1842037439346313e-01" nType="0">
          <Node pos="l" depth="2" NCoef="0" IVar="-1" Cut="0.0000000000000000e+00" cType="1" res="2.0643621683120728e-02" rms="4.3349334597587585e-01" purity="7.2067868709564209e-01" nType="-99"/>
          <Node pos="r" depth="2" NCoef="0" IVar="-1" Cut="0.0000000000000000e+00" cType="1" res="6.5397731959819794e-02" rms="2.2506408393383026e-01" purity="9.4216102361679077e-01" nType="-99"/>
        </Node>
      </Node>
    </BinaryTree>
    <BinaryTree type="DecisionTree" boostWeight="1.0000000000000000e+00" itree="5">
      <Node pos="s" depth="0" NCoef="0" IVar="0" Cut="1.6342144775390625e+02" cType="1" res="1.5854059020057321e-03" rms="3.9415147900581360e-01" purity="5.0164568424224854e-01" nType="0">
        <Node pos="l" depth="1" NCoef="0" IVar="0" Cut="1.2387317657470703e+02" cType="1" res="-1.8615972995758057e-01" rms="3.7496644258499146e-01" purity="1.8776734173297882e-01" nType="0">
          <Node pos="l" depth="2" NCoef="0" IVar="-1" Cut="0.0000000000000000e+00" cType="1" res="-4.8641670495271683e-02" rms="3.3562922477722168e-01" purity="1.3419340550899506e-01" nType="-99"/>
          <Node pos="r" depth="2" NCoef="0" IVar="-1" Cut="0.0000000000000000e+00" cType="1" res="9.5768005121499300e-04" rms="4.9425485730171204e-01" purity="4.6961477398872375e-01" nType="-99"/>
        </Node>
        <Node pos="r" depth="1" NCoef="0" IVar="9" Cut="2.1766723632812500e+02" cType="1" res="2.5570994615554810e-01" rms="2.5107371807098389e-01" purity="9.2649912834167480e-01" nType="0">
          <Node pos="l" depth="2" NCoef="0" IVar="-1" Cut="0.0000000000000000e+00" cType="1" res="3.2086510211229324e-02" rms="4.0873786807060242e-01" purity="7.8105175495147705e-01" nType="-99"/>
          <Node pos="r" depth="2" NCoef="0" IVar="-1" Cut="0.0000000000000000e+00" cType="1" res="6.6353596746921539e-02" rms="1.6734766960144043e-01" purity="9.6939885616302490e-01" nType="-99"/>
        </Node>
      </Node>
    </BinaryTree>
    <BinaryTree type="DecisionTree" boostWeight="1.0000000000000000e+00" itree="6">
      <Node pos="s" depth="0" NCoef="0" IVar="0" Cut="1.5163427734375000e+02" cType="1" res="1.5416506212204695e-03" rms="3.8173139095306396e-01" purity="5.0110310316085815e-01" nType="0">
        <Node pos="l" depth="1" NCoef="0" IVar="6" Cut="2.8423945903778076e+00" cType="1" res="-1.7635419964790344e-01" rms="3.6473914980888367e-01" purity="1.7286580801010132e-01" nType="0">
          <Node pos="l" depth="2" NCoef="0" IVar="-1" Cut="0.0000000000000000e+00" cType="1" res="-5.2138827741146088e-02" rms="3.0131724476814270e-01" purity="1.0614405572414398e-01" nType="-99"/>
          <Node pos="r" depth="2" NCoef="0" IVar="-1" Cut="0.0000000000000000e+00" cType="1" res="-1.5433320775628090e-02" rms="4.4329327344894409e-01" purity="2.9976257681846619e-01" nType="-99"/>
        </Node>
        <Node pos="r" depth="1" NCoef="0" IVar="9" Cut="1.2757517242431641e+02" cType="1" res="2.2189930081367493e-01" rms="2.7142670750617981e-01" purity="9.0768718719482422e-01" nType="0">
          <Node pos="l" depth="2" NCoef="0" IVar="-1" Cut="0.0000000000000000e+00" cType="1" res="-1.3178257271647453e-02" rms="4.8703446984291077e-01" purity="5.4745376110076904e-01" nType="-99"/>
          <Node pos="r" depth="2" NCoef="0" IVar="-1" Cut="0.0000000000000000e+00" cType="1" res="5.6898567825555801e-02" rms="2.3945401608943939e-01" purity="9.3129837512969971e-01" nType="-99"/>
        </Node>
      </Node>
    </BinaryTree>
    <BinaryTree type="DecisionTree" boostWeight="1.0000000000000000e+00" itree="7">
      <Node pos="s" depth="0" NCoef="0" IVar="0" Cut="1.6725494384765625e+02" cType="1" res="-2.3181835422292352e-04" rms="3.6993131041526794e-01" purity="4.9935069680213928e-01" nType="0">
        <Node pos="l" depth="1" NCoef="0" IVar="6" Cut="2.6927974224090576e+00" cType="1" res="-1.5231582522392273e-01" rms="3.7073203921318054e-01" purity="1.9079095125198364e-01" nType="0">
          <Node pos="l" depth="2" NCoef="0" IVar="-1" Cut="0.0000000000000000e+00" cType="1" res="-5.2561435848474503e-02" rms="2.8052765130996704e-01" purity="9.1136887669563293e-02" nType="-99"/>
          <Node pos="r" depth="2" NCoef="0" IVar="-1" Cut="0.0000000000000000e+00" cType="1" res="-1.6244566068053246e-02" rms="4.3514955043792725e-01" purity="2.9878753423690796e-01" nType="-99"/>
        </Node>
        <Node pos="r" depth="1" NCoef="0" IVar="7" Cut="2.8813941478729248e+00" cType="1" res="2.1282576024532318e-01" rms="2.4129268527030945e-01" purity="9.3161821365356445e-01" nType="0">
          <Node pos="l" depth="2" NCoef="0" IVar="-1" Cut="0.0000000000000000e+00" cType="1" res="1.5875635668635368e-02" rms="4.1205808520317078e-01" purity="7.5506335496902466e-01" nType="-99"/>
          <Node pos="r" depth="2" NCoef="0" IVar="-1" Cut="0.0000000000000000e+00" cType="1" res="5.7405441999435425e-02" rms="2.0724385976791382e-01" purity="9.5159035921096802e-01" nType="-99"/>
        </Node>
      </Node>
    </BinaryTree>
    <BinaryTree type="DecisionTree" boostWeight="1.0000000000000000e+00" itree="8">
      <Node pos="s" depth="0" NCoef="0" IVar="0" Cut="1.6725494384765625e+02" cType="1" res="1.4304391806945205e-03" rms="3.6116287112236023e-01" purity="5.0166130065917969e-01" nType="0">
        <Node pos="l" depth="1" NCoef="0" IVar="0" Cut="1.1983651733398438e+02" cType="1" res="-1.3506579399108887e-01" rms="3.7117955088615417e-01" purity="1.9352318346500397e-01" nType="0">
          <Node pos="l" depth="2" NCoef="0" IVar="-1" Cut="0.0000000000000000e+00" cType="1" res="-4.1289683431386948e-02" rms="3.2673445343971252e-01" purity="1.2719157338142395e-01" nType="-99"/>
          <Node pos="r" depth="2" NCoef="0" IVar="-1" Cut="0.0000000000000000e+00" cType="1" res="4.2730993591248989e-03" rms="4.8675984144210815e-01" purity="4.6993482112884521e-01" nType="-99"/>
        </Node>
        <Node pos="r" depth="1" NCoef="0" IVar="0" Cut="3.0273980712890625e+02" cType="1" res="1.9185411930084229e-01" rms="2.4073117971420288e-01" purity="9.3153977394104004e-01" nType="0">
          <Node pos="l" depth="2" NCoef="0" IVar="-1" Cut="0.0000000000000000e+00" cType="1" res="3.2989997416734695e-02" rms="3.5353323817253113e-01" purity="8.4427964687347412e-01" nType="-99"/>
          <Node pos="r" depth="2" NCoef="0" IVar="-1" Cut="0.0000000000000000e+00" cType="1" res="6.3336730003356934e-02" rms="9.2260658740997314e-02" purity="9.9116545915603638e-01" nType="-99"/>
        </Node>
      </Node>
    </BinaryTree>
    <BinaryTree type="DecisionTree" boostWeight="1.0000000000000000e+00" itree="9">
      <Node pos="s" depth="0" NCoef="0" IVar="0" Cut="1.6341749572753906e+02" cType="1" res="-7.5083393312525004e-05" rms="3.5412040352821350e-01" purity="4.9862173199653625e-01" nType="0">
        <Node pos="l" depth="1" NCoef="0" IVar="2" Cut="1.8096520996093750e+02" cType="1" res="-1.2328067421913147e-01" rms="3.6830985546112061e-01" purity="1.8755312263965607e-01" nType="0">
          <Node pos="l" depth="2" NCoef="0" IVar="-1" Cut="0.0000000000000000e+00" cType="1" res="-3.9604943245649338e-02" rms="3.2397246360778809e-01" purity="1.3197073340415955e-01" nType="-99"/>
          <Node pos="r" depth="2" NCoef="0" IVar="-1" Cut="0.0000000000000000e+00" cType="1" res="7.9336413182318211e-04" rms="4.6368682384490967e-01" purity="3.6929672956466675e-01" nType="-99"/>
        </Node>
        <Node pos="r" depth="1" NCoef="0" IVar="0" Cut="2.9524462890625000e+02" cType="1" res="1.6878648102283478e-01" rms="2.4906386435031891e-01" purity="9.2496222257614136e-01" nType="0">
          <Node pos="l" depth="2" NCoef="0" IVar="-1" Cut="0.0000000000000000e+00" cType="1" res="2.7190623804926872e-02" rms="3.6874526739120483e-01" purity="8.2608163356781006e-01" nType="-99"/>
          <Node pos="r" depth="2" NCoef="0" IVar="-1" Cut="0.0000000000000000e+00" cType="1" res="6.1012115329504013e-02" rms="9.8142698407173157e-02" purity="9.8998171091079712e-01" nType="-99"/>
        </Node>
      </Node>
    </BinaryTree>
    <BinaryTree type="DecisionTree" boostWeight="1.0000000000000000e+00" itree="10">
      <Node pos="s" depth="0" NCoef="0" IVar="0" Cut="1.4267344665527344e+02" cType="1" res="1.0414773132652044e-03" rms="3.4720569849014282e-01" purity="5.0113326311111450e-01" nType="0">
        <Node pos="l" depth="1" NCoef="0" IVar="0" Cut="8.6638656616210938e+01" cType="1" res="-1.2534342706203461e-01" rms="3.5179471969604492e-01" purity="1.5951330959796906e-01" nType="0">
          <Node pos="l" depth="2" NCoef="0" IVar="-1" Cut="0.0000000000000000e+00" cType="1" res="-4.4665444642305374e-02" rms="2.7955132722854614e-01" purity="8.7309964001178741e-02" nType="-99"/>
          <Node pos="r" depth="2" NCoef="0" IVar="-1" Cut="0.0000000000000000e+00" cType="1" res="-1.2156740762293339e-02" rms="4.3394812941551208e-01" purity="2.7525612711906433e-01" nType="-99"/>
        </Node>
        <Node pos="r" depth="1" NCoef="0" IVar="7" Cut="2.6562309265136719e+00" cType="1" res="1.4540483057498932e-01" rms="2.7892944216728210e-01" purity="8.9134919643402100e-01" nType="0">
          <Node pos="l" depth="2" NCoef="0" IVar="-1" Cut="0.0000000000000000e+00" cType="1" res="-2.3343341425061226e-02" rms="4.5077478885650635e-01" purity="5.5023252964019775e-01" nType="-99"/>
          <Node pos="r" depth="2" NCoef="0" IVar="-1" Cut="0.0000000000000000e+00" cType="1" res="4.5294240117073059e-02" rms="2.5545510649681091e-01" purity="9.1398370265960693e-01" nType="-99"/>
        </Node>
      </Node>
    </BinaryTree>
    <BinaryTree type="DecisionTree" boostWeight="1.0000000000000000e+00" itree="11">
      <Node pos="s" depth="0" NCoef="0" IVar="0" Cut="1.5878547668457031e+02" cType="1" res="3.1194792245514691e-04" rms="3.4131133556365967e-01" purity="4.9950867891311646e-01" nType="0">
        <Node pos="l" depth="1" NCoef="0" IVar="7" Cut="2.9066517353057861e+00" cType="1" res="-1.0362262278795242e-01" rms="3.6220249533653259e-01" purity="1.8089751899242401e-01" nType="0">
          <Node pos="l" depth="2" NCoef="0" IVar="-1" Cut="0.0000000000000000e+00" cType="1" res="-4.5549515634775162e-02" rms="2.7193203568458557e-01" purity="8.6175441741943359e-02" nType="-99"/>
          <Node pos="r" depth="2" NCoef="0" IVar="-1" Cut="0.0000000000000000e+00" cType="1" res="-1.1130020022392273e-02" rms="4.1540229320526123e-01" purity="2.6131516695022583e-01" nType="-99"/>
        </Node>
        <Node pos="r" depth="1" NCoef="0" IVar="0" Cut="2.8620053100585938e+02" cType="1" res="1.3732899725437164e-01" rms="2.5318685173988342e-01" purity="9.1953402757644653e-01" nType="0">
          <Node pos="l" depth="2" NCoef="0" IVar="-1" Cut="0.0000000000000000e+00" cType="1" res="2.0318616181612015e-02" rms="3.7762698531150818e-01" purity="8.1067556142807007e-01" nType="-99"/>
          <Node pos="r" depth="2" NCoef="0" IVar="-1" Cut="0.0000000000000000e+00" cType="1" res="5.8072347193956375e-02" rms="9.9193088710308075e-02" purity="9.8972976207733154e-01" nType="-99"/>
        </Node>
      </Node>
    </BinaryTree>
    <BinaryTree type="DecisionTree" boostWeight="1.0000000000000000e+00" itree="12">
      <Node pos="s" depth="0" NCoef="0" IVar="0" Cut="1.6725494384765625e+02" cType="1" res="1.9866622460540384e-04" rms="3.3568143844604492e-01" purity="5.0038373470306396e-01" nType="0">
        <Node pos="l" depth="1" NCoef="0" IVar="6" Cut="2.8424096107482910e+00" cType="1" res="-9.2730239033699036e-02" rms="3.6366379261016846e-01" purity="1.9058062136173248e-01" nType="0">
          <Node pos="l" depth="2" NCoef="0" IVar="-1" Cut="0.0000000000000000e+00" cType="1" res="-3.8024544715881348e-02" rms="3.0189171433448792e-01" purity="1.1199254542589188e-01" nType="-99"/>
          <Node pos="r" depth="2" NCoef="0" IVar="-1" Cut="0.0000000000000000e+00" cType="1" res="-2.3433025926351547e-03" rms="4.4061002135276794e-01" purity="3.2935696840286255e-01" nType="-99"/>
        </Node>
        <Node pos="r" depth="1" NCoef="0" IVar="6" Cut="2.6928536891937256e+00" cType="1" res="1.2946172058582306e-01" rms="2.3820184171199799e-01" purity="9.3131643533706665e-01" nType="0">
          <Node pos="l" depth="2" NCoef="0" IVar="-1" Cut="0.0000000000000000e+00" cType="1" res="4.1175037622451782e-03" rms="4.0360566973686218e-01" purity="7.5780797004699707e-01" nType="-99"/>
          <Node pos="r" depth="2" NCoef="0" IVar="-1" Cut="0.0000000000000000e+00" cType="1" res="4.6412270516157150e-02" rms="2.0756828784942627e-01" purity="9.5096087455749512e-01" nType="-99"/>
        </Node>
      </Node>
    </BinaryTree>
    <BinaryTree type="DecisionTree" boostWeight="1.0000000000000000e+00" itree="13">
      <Node pos="s" depth="0" NCoef="0" IVar="0" Cut="1.6705561828613281e+02" cType="1" res="-1.3962085176899564e-05" rms="3.3215069770812988e-01" purity="4.9961888790130615e-01" nType="0">
        <Node pos="l" depth="1" NCoef="0" IVar="0" Cut="8.5881027221679688e+01" cType="1" res="-8.3532579243183136e-02" rms="3.6353421211242676e-01" purity="1.9005848467350006e-01" nType="0">
          <Node pos="l" depth="2" NCoef="0" IVar="-1" Cut="0.0000000000000000e+00" cType="1" res="-3.9451368153095245e-02" rms="2.7677521109580994e-01" purity="8.5953161120414734e-02" nType="-99"/>
          <Node pos="r" depth="2" NCoef="0" IVar="-1" Cut="0.0000000000000000e+00" cType="1" res="-4.2371042072772980e-03" rms="4.4110003113746643e-01" purity="3.2141572237014771e-01" nType="-99"/>
        </Node>
        <Node pos="r" depth="1" NCoef="0" IVar="7" Cut="2.8958542346954346e+00" cType="1" res="1.1644251644611359e-01" rms="2.3789113759994507e-01" purity="9.3126291036605835e-01" nType="0">
          <Node pos="l" depth="2" NCoef="0" IVar="-1" Cut="0.0000000000000000e+00" cType="1" res="1.8063224852085114e-03" rms="4.0029194951057434e-01" purity="7.6126849651336670e-01" nType="-99"/>
          <Node pos="r" depth="2" NCoef="0" IVar="-1" Cut="0.0000000000000000e+00" cType="1" res="4.4707354158163071e-02" rms="2.0624731481075287e-01" purity="9.5165461301803589e-01" nType="-99"/>
        </Node>
      </Node>
    </BinaryTree>
    <BinaryTree type="DecisionTree" boostWeight="1.0000000000000000e+00" itree="14">
      <Node pos="s" depth="0" NCoef="0" IVar="2" Cut="2.5892379760742188e+02" cType="1" res="7.5566791929304600e-04" rms="3.2975751161575317e-01" purity="4.9913111329078674e-01" nType="0">
        <Node pos="l" depth="1" NCoef="0" IVar="6" Cut="2.5432028770446777e+00" cType="1" res="-6.9490000605583191e-02" rms="3.5182780027389526e-01" purity="2.5930678844451904e-01" nType="0">
          <Node pos="l" depth="2" NCoef="0" IVar="-1" Cut="0.0000000000000000e+00" cType="1" res="-4.3913599103689194e-02" rms="2.6103261113166809e-01" purity="8.8240370154380798e-02" nType="-99"/>
          <Node pos="r" depth="2" NCoef="0" IVar="-1" Cut="0.0000000000000000e+00" cType="1" res="-4.7276322729885578e-03" rms="3.9327317476272583e-01" purity="3.7456285953521729e-01" nType="-99"/>
        </Node>
        <Node pos="r" depth="1" NCoef="0" IVar="3" Cut="1.3470497131347656e+02" cType="1" res="1.1824445426464081e-01" rms="2.4803960323333740e-01" purity="9.0024709701538086e-01" nType="0">
          <Node pos="l" depth="2" NCoef="0" IVar="-1" Cut="0.0000000000000000e+00" cType="1" res="1.7268437892198563e-02" rms="4.2221587896347046e-01" purity="6.7758369445800781e-01" nType="-99"/>
          <Node pos="r" depth="2" NCoef="0" IVar="-1" Cut="0.0000000000000000e+00" cType="1" res="5.1094323396682739e-02" rms="1.4855754375457764e-01" purity="9.7312885522842407e-01" nType="-99"/>
        </Node>
      </Node>
    </BinaryTree>
    <BinaryTree type="DecisionTree" boostWeight="1.0000000000000000e+00" itree="15">
      <Node pos="s" depth="0" NCoef="0" IVar="0" Cut="1.6725553894042969e+02" cType="1" res="7.4391782982274890e-04" rms="3.2576781511306763e-01" purity="5.0037044286727905e-01" nType="0">
        <Node pos="l" depth="1" NCoef="0" IVar="2" Cut="1.4962394714355469e+02" cType="1" res="-6.8357363343238831e-02" rms="3.6178302764892578e-01" purity="1.9177933037281036e-01" nType="0">
          <Node pos="l" depth="2" NCoef="0" IVar="-1" Cut="0.0000000000000000e+00" cType="1" res="-3.2759822905063629e-02" rms="2.9938384890556335e-01" purity="1.1216931045055389e-01" nType="-99"/>
          <Node pos="r" depth="2" NCoef="0" IVar="-1" Cut="0.0000000000000000e+00" cType="1" res="6.1035726685076952e-04" rms="4.3831101059913635e-01" purity="3.2539007067680359e-01" nType="-99"/>
        </Node>
        <Node pos="r" depth="1" NCoef="0" IVar="0" Cut="3.0273959350585938e+02" cType="1" res="9.7347997128963470e-02" rms="2.3558230698108673e-01" purity="9.3178308010101318e-01" nType="0">
          <Node pos="l" depth="2" NCoef="0" IVar="-1" Cut="0.0000000000000000e+00" cType="1" res="1.6838558018207550e-02" rms="3.4887269139289856e-01" purity="8.4436672925949097e-01" nType="-99"/>
          <Node pos="r" depth="2" NCoef="0" IVar="-1" Cut="0.0000000000000000e+00" cType="1" res="5.4328117519617081e-02" rms="9.0103380382061005e-02" purity="9.9165958166122437e-01" nType="-99"/>
        </Node>
      </Node>
    </BinaryTree>
    <BinaryTree type="DecisionTree" boostWeight="1.0000000000000000e+00" itree="16">
      <Node pos="s" depth="0" NCoef="0" IVar="2" Cut="2.4047161865234375e+02" cType="1" res="2.7446009335108101e-04" rms="3.2293653488159180e-01" purity="5.0047326087951660e-01" nType="0">
        <Node pos="l" depth="1" NCoef="0" IVar="6" Cut="2.8423984050750732e+00" cType="1" res="-6.4135812222957611e-02" rms="3.4602019190788269e-01" purity="2.3971611261367798e-01" nType="0">
          <Node pos="l" depth="2" NCoef="0" IVar="-1" Cut="0.0000000000000000e+00" cType="1" res="-3.3669009804725647e-02" rms="2.9551529884338379e-01" purity="1.2282193452119827e-01" nType="-99"/>
          <Node pos="r" depth="2" NCoef="0" IVar="-1" Cut="0.0000000000000000e+00" cType="1" res="1.3581608654931188e-03" rms="4.0377241373062134e-01" purity="4.2426145076751709e-01" nType="-99"/>
        </Node>
        <Node pos="r" depth="1" NCoef="0" IVar="3" Cut="1.2151499176025391e+02" cType="1" res="9.4862297177314758e-02" rms="2.5801521539688110e-01" purity="8.8340061902999878e-01" nType="0">
          <Node pos="l" depth="2" NCoef="0" IVar="-1" Cut="0.0000000000000000e+00" cType="1" res="1.0794820263981819e-02" rms="4.3649196624755859e-01" purity="6.1202418804168701e-01" nType="-99"/>
          <Node pos="r" depth="2" NCoef="0" IVar="-1" Cut="0.0000000000000000e+00" cType="1" res="4.5936528593301773e-02" rms="1.7100648581981659e-01" purity="9.6274638175964355e-01" nType="-99"/>
        </Node>
      </Node>
    </BinaryTree>
    <BinaryTree type="DecisionTree" boostWeight="1.0000000000000000e+00" itree="17">
      <Node pos="s" depth="0" NCoef="0" IVar="9" Cut="1.3881199645996094e+02" cType="1" res="1.3920894125476480e-03" rms="3.2196146249771118e-01" purity="5.0129264593124390e-01" nType="0">
        <Node pos="l" depth="1" NCoef="0" IVar="6" Cut="2.3935949802398682e+00" cType="1" res="-6.8146802484989166e-02" rms="3.5429054498672485e-01" purity="1.8429154157638550e-01" nType="0">
          <Node pos="l" depth="2" NCoef="0" IVar="-1" Cut="0.0000000000000000e+00" cType="1" res="-4.0508180856704712e-02" rms="2.5631049275398254e-01" purity="8.4292367100715637e-02" nType="-99"/>
          <Node pos="r" depth="2" NCoef="0" IVar="-1" Cut="0.0000000000000000e+00" cType="1" res="-9.7268242388963699e-03" rms="4.0029656887054443e-01" purity="2.4692980945110321e-01" nType="-99"/>
        </Node>
        <Node pos="r" depth="1" NCoef="0" IVar="8" Cut="2.2124810516834259e-01" cType="1" res="6.6338859498500824e-02" rms="2.7295768260955811e-01" purity="7.9736000299453735e-01" nType="0">
          <Node pos="l" depth="2" NCoef="0" IVar="-1" Cut="0.0000000000000000e+00" cType="1" res="3.3976256847381592e-02" rms="2.5588792562484741e-01" purity="8.9099836349487305e-01" nType="-99"/>
          <Node pos="r" depth="2" NCoef="0" IVar="-1" Cut="0.0000000000000000e+00" cType="1" res="-1.3301082886755466e-02" rms="3.1498602032661438e-01" purity="3.9221453666687012e-01" nType="-99"/>
        </Node>
      </Node>
    </BinaryTree>
    <BinaryTree type="DecisionTree" boostWeight="1.0000000000000000e+00" itree="18">
      <Node pos="s" depth="0" NCoef="0" IVar="0" Cut="1.4734970092773438e+02" cType="1" res="3.2837656908668578e-04" rms="3.1990200281143188e-01" purity="5.0023293495178223e-01" nType="0">
        <Node pos="l" depth="1" NCoef="0" IVar="2" Cut="1.7554940795898438e+02" cType="1" res="-5.8548543602228165e-02" rms="3.4859627485275269e-01" purity="1.6535711288452148e-01" nType="0">
          <Node pos="l" depth="2" NCoef="0" IVar="-1" Cut="0.0000000000000000e+00" cType="1" res="-2.6012038812041283e-02" rms="3.0994299054145813e-01" purity="1.1947341263294220e-01" nType="-99"/>
          <Node pos="r" depth="2" NCoef="0" IVar="-1" Cut="0.0000000000000000e+00" cType="1" res="4.8644463531672955e-03" rms="4.4729128479957581e-01" purity="3.2123756408691406e-01" nType="-99"/>
        </Node>
        <Node pos="r" depth="1" NCoef="0" IVar="9" Cut="1.2744792938232422e+02" cType="1" res="7.0599928498268127e-02" rms="2.6526853442192078e-01" purity="8.9991825819015503e-01" nType="0">
          <Node pos="l" depth="2" NCoef="0" IVar="-1" Cut="0.0000000000000000e+00" cType="1" res="-2.3683510720729828e-02" rms="4.7571194171905518e-01" purity="5.2742135524749756e-01" nType="-99"/>
          <Node pos="r" depth="2" NCoef="0" IVar="-1" Cut="0.0000000000000000e+00" cType="1" res="3.3490840345621109e-02" rms="2.3876863718032837e-01" purity="9.2652612924575806e-01" nType="-99"/>
        </Node>
      </Node>
    </BinaryTree>
    <BinaryTree type="DecisionTree" boostWeight="1.0000000000000000e+00" itree="19">
      <Node pos="s" depth="0" NCoef="0" IVar="2" Cut="2.7238150024414062e+02" cType="1" res="1.7500687681604177e-04" rms="3.1800767779350281e-01" purity="4.9993684887886047e-01" nType="0">
        <Node pos="l" depth="1" NCoef="0" IVar="8" Cut="1.4271578192710876e-01" cType="1" res="-4.4039610773324966e-02" rms="3.4704089164733887e-01" purity="2.7186027169227600e-01" nType="0">
          <Node pos="l" depth="2" NCoef="0" IVar="-1" Cut="0.0000000000000000e+00" cType="1" res="2.3103051353245974e-03" rms="3.7261468172073364e-01" purity="3.9749437570571899e-01" nType="-99"/>
          <Node pos="r" depth="2" NCoef="0" IVar="-1" Cut="0.0000000000000000e+00" cType="1" res="-2.8291897848248482e-02" rms="3.1571027636528015e-01" purity="1.6061320900917053e-01" nType="-99"/>
        </Node>
        <Node pos="r" depth="1" NCoef="0" IVar="7" Cut="3.3606905937194824e+00" cType="1" res="8.0200627446174622e-02" rms="2.3714837431907654e-01" purity="9.1274076700210571e-01" nType="0">
          <Node pos="l" depth="2" NCoef="0" IVar="-1" Cut="0.0000000000000000e+00" cType="1" res="3.0240371823310852e-02" rms="2.2515536844730377e-01" purity="9.2254364490509033e-01" nType="-99"/>
          <Node pos="r" depth="2" NCoef="0" IVar="-1" Cut="0.0000000000000000e+00" cType="1" res="4.1949827224016190e-02" rms="2.5722649693489075e-01" purity="8.9326399564743042e-01" nType="-99"/>
        </Node>
      </Node>
    </BinaryTree>
    <BinaryTree type="DecisionTree" boostWeight="1.0000000000000000e+00" itree="20">
      <Node pos="s" depth="0" NCoef="0" IVar="6" Cut="2.8423955440521240e+00" cType="1" res="-4.1776333091547713e-05" rms="3.1681346893310547e-01" purity="4.9991202354431152e-01" nType="0">
        <Node pos="l" depth="1" NCoef="0" IVar="2" Cut="2.2644151306152344e+02" cType="1" res="-6.3725061714649200e-02" rms="3.1366279721260071e-01" purity="2.1992139518260956e-01" nType="0">
          <Node pos="l" depth="2" NCoef="0" IVar="-1" Cut="0.0000000000000000e+00" cType="1" res="-2.8500922024250031e-02" rms="2.9285272955894470e-01" purity="1.1856152862310410e-01" nType="-99"/>
          <Node pos="r" depth="2" NCoef="0" IVar="-1" Cut="0.0000000000000000e+00" cType="1" res="3.4701020922511816e-03" rms="3.7991994619369507e-01" purity="6.4492291212081909e-01" nType="-99"/>
        </Node>
        <Node pos="r" depth="1" NCoef="0" IVar="8" Cut="1.8861883878707886e-01" cType="1" res="4.9980442970991135e-02" rms="3.1023100018501282e-01" purity="7.1984034776687622e-01" nType="0">
          <Node pos="l" depth="2" NCoef="0" IVar="-1" Cut="0.0000000000000000e+00" cType="1" res="2.7638033032417297e-02" rms="2.9504066705703735e-01" purity="7.9250186681747437e-01" nType="-99"/>
          <Node pos="r" depth="2" NCoef="0" IVar="-1" Cut="0.0000000000000000e+00" cType="1" res="-1.6760585829615593e-02" rms="3.5124766826629639e-01" purity="3.9639696478843689e-01" nType="-99"/>
        </Node>
      </Node>
    </BinaryTree>
    <BinaryTree type="DecisionTree" boostWeight="1.0000000000000000e+00" itree="21">
      <Node pos="s" depth="0" NCoef="0" IVar="3" Cut="1.3436734008789062e+02" cType="1" res="2.2282711870502681e-04" rms="3.1484991312026978e-01" purity="4.9991467595100403e-01" nType="0">
        <Node pos="l" depth="1" NCoef="0" IVar="8" Cut="1.4268571138381958e-01" cType="1" res="-4.1630089282989502e-02" rms="3.5254347324371338e-01" purity="2.4093177914619446e-01" nType="0">
          <Node pos="l" depth="2" NCoef="0" IVar="-1" Cut="0.0000000000000000e+00" cType="1" res="-6.7478988785296679e-04" rms="3.8661408424377441e-01" purity="3.5403275489807129e-01" nType="-99"/>
          <Node pos="r" depth="2" NCoef="0" IVar="-1" Cut="0.0000000000000000e+00" cType="1" res="-2.4961845949292183e-02" rms="3.1715434789657593e-01" purity="1.4534310996532440e-01" nType="-99"/>
        </Node>
        <Node pos="r" depth="1" NCoef="0" IVar="6" Cut="2.0944035053253174e+00" cType="1" res="6.4087271690368652e-02" rms="2.3236189782619476e-01" purity="8.9510333538055420e-01" nType="0">
          <Node pos="l" depth="2" NCoef="0" IVar="-1" Cut="0.0000000000000000e+00" cType="1" res="-3.4817259758710861e-02" rms="3.8913145661354065e-01" purity="3.5445493459701538e-01" nType="-99"/>
          <Node pos="r" depth="2" NCoef="0" IVar="-1" Cut="0.0000000000000000e+00" cType="1" res="3.6042429506778717e-02" rms="2.1036851406097412e-01" purity="9.3358647823333740e-01" nType="-99"/>
        </Node>
      </Node>
    </BinaryTree>
    <BinaryTree type="DecisionTree" boostWeight="1.0000000000000000e+00" itree="22">
      <Node pos="s" depth="0" NCoef="0" IVar="6" Cut="2.9919943809509277e+00" cType="1" res="-4.1649219929240644e-04" rms="3.1408041715621948e-01" purity="4.9860939383506775e-01" nType="0">
        <Node pos="l" depth="1" NCoef="0" IVar="2" Cut="1.7119830322265625e+02" cType="1" res="-4.0428865700960159e-02" rms="3.2811272144317627e-01" purity="3.0693018436431885e-01" nType="0">
          <Node pos="l" depth="2" NCoef="0" IVar="-1" Cut="0.0000000000000000e+00" cType="1" res="-2.6448337361216545e-02" rms="2.9145967960357666e-01" purity="1.1703381687402725e-01" nType="-99"/>
          <Node pos="r" depth="2" NCoef="0" IVar="-1" Cut="0.0000000000000000e+00" cType="1" res="3.1139035709202290e-03" rms="3.7185221910476685e-01" purity="5.9772491455078125e-01" nType="-99"/>
        </Node>
        <Node pos="r" depth="1" NCoef="0" IVar="8" Cut="1.9028840959072113e-01" cType="1" res="6.0129500925540924e-02" rms="2.8093084692955017e-01" purity="7.8865492343902588e-01" nType="0">
          <Node pos="l" depth="2" NCoef="0" IVar="-1" Cut="0.0000000000000000e+00" cType="1" res="3.1258262693881989e-02" rms="2.6461604237556458e-01" purity="8.4673535823822021e-01" nType="-99"/>
          <Node pos="r" depth="2" NCoef="0" IVar="-1" Cut="0.0000000000000000e+00" cType="1" res="-9.0244784951210022e-03" rms="3.5299035906791687e-01" purity="4.3031162023544312e-01" nType="-99"/>
        </Node>
      </Node>
    </BinaryTree>
    <BinaryTree type="DecisionTree" boostWeight="1.0000000000000000e+00" itree="23">
      <Node pos="s" depth="0" NCoef="0" IVar="2" Cut="2.6245117187500000e+02" cType="1" res="7.8060437226668000e-04" rms="3.1247705221176147e-01" purity="5.0008988380432129e-01" nType="0">
        <Node pos="l" depth="1" NCoef="0" IVar="0" Cut="1.0184380340576172e+02" cType="1" res="-3.3821757882833481e-02" rms="3.4233799576759338e-01" purity="2.6288464665412903e-01" nType="0">
          <Node pos="l" depth="2" NCoef="0" IVar="-1" Cut="0.0000000000000000e+00" cType="1" res="-2.4142621085047722e-02" rms="2.9008829593658447e-01" purity="9.8352484405040741e-02" nType="-99"/>
          <Node pos="r" depth="2" NCoef="0" IVar="-1" Cut="0.0000000000000000e+00" cType="1" res="4.8483451828360558e-03" rms="4.0992209315299988e-01" purity="5.3722351789474487e-01" nType="-99"/>
        </Node>
        <Node pos="r" depth="1" NCoef="0" IVar="0" Cut="3.1156896972656250e+02" cType="1" res="5.9719432145357132e-02" rms="2.4253457784652710e-01" purity="9.0412580966949463e-01" nType="0">
          <Node pos="l" depth="2" NCoef="0" IVar="-1" Cut="0.0000000000000000e+00" cType="1" res="1.1801861226558685e-02" rms="3.6866560578346252e-01" purity="7.7188158035278320e-01" nType="-99"/>
          <Node pos="r" depth="2" NCoef="0" IVar="-1" Cut="0.0000000000000000e+00" cType="1" res="5.0976444035768509e-02" rms="7.3928117752075195e-02" purity="9.9446964263916016e-01" nType="-99"/>
        </Node>
      </Node>
    </BinaryTree>
    <BinaryTree type="DecisionTree" boostWeight="1.0000000000000000e+00" itree="24">
      <Node pos="s" depth="0" NCoef="0" IVar="6" Cut="2.6927990913391113e+00" cType="1" res="7.6328427530825138e-04" rms="3.1153011322021484e-01" purity="5.0020664930343628e-01" nType="0">
        <Node pos="l" depth="1" NCoef="0" IVar="7" Cut="2.3585665225982666e+00" cType="1" res="-5.9671875089406967e-02" rms="2.9091235995292664e-01" purity="1.7196875810623169e-01" nType="0">
          <Node pos="l" depth="2" NCoef="0" IVar="-1" Cut="0.0000000000000000e+00" cType="1" res="-3.8364876061677933e-02" rms="2.4487844109535217e-01" purity="9.5664314925670624e-02" nType="-99"/>
          <Node pos="r" depth="2" NCoef="0" IVar="-1" Cut="0.0000000000000000e+00" cType="1" res="-1.3471433892846107e-02" rms="3.1529113650321960e-01" purity="2.2202520072460175e-01" nType="-99"/>
        </Node>
        <Node pos="r" depth="1" NCoef="0" IVar="8" Cut="1.8887461721897125e-01" cType="1" res="3.2568227499723434e-02" rms="3.1726026535034180e-01" purity="6.7294687032699585e-01" nType="0">
          <Node pos="l" depth="2" NCoef="0" IVar="-1" Cut="0.0000000000000000e+00" cType="1" res="2.0411230623722076e-02" rms="3.0596899986267090e-01" purity="7.5472384691238403e-01" nType="-99"/>
          <Node pos="r" depth="2" NCoef="0" IVar="-1" Cut="0.0000000000000000e+00" cType="1" res="-1.2133751064538956e-02" rms="3.4676522016525269e-01" purity="3.7260603904724121e-01" nType="-99"/>
        </Node>
      </Node>
    </BinaryTree>
    <BinaryTree type="DecisionTree" boostWeight="1.0000000000000000e+00" itree="25">
      <Node pos="s" depth="0" NCoef="0" IVar="6" Cut="2.6927964687347412e+00" cType="1" res="3.2793291029520333e-04" rms="3.1085422635078430e-01" purity="4.9916213750839233e-01" nType="0">
        <Node pos="l" depth="1" NCoef="0" IVar="2" Cut="2.6926052856445312e+02" cType="1" res="-5.5616036057472229e-02" rms="2.9024410247802734e-01" purity="1.6971996426582336e-01" nType="0">
          <Node pos="l" depth="2" NCoef="0" IVar="-1" Cut="0.0000000000000000e+00" cType="1" res="-2.6349116116762161e-02" rms="2.7562034130096436e-01" purity="1.0547192394733429e-01" nType="-99"/>
          <Node pos="r" depth="2" NCoef="0" IVar="-1" Cut="0.0000000000000000e+00" cType="1" res="6.0223005712032318e-03" rms="3.7988337874412537e-01" purity="6.8515789508819580e-01" nType="-99"/>
        </Node>
        <Node pos="r" depth="1" NCoef="0" IVar="3" Cut="1.2919708251953125e+02" cType="1" res="2.9709715396165848e-02" rms="3.1722211837768555e-01" purity="6.7218518257141113e-01" nType="0">
          <Node pos="l" depth="2" NCoef="0" IVar="-1" Cut="0.0000000000000000e+00" cType="1" res="-1.7971177585422993e-03" rms="4.0715280175209045e-01" purity="3.6594572663307190e-01" nType="-99"/>
          <Node pos="r" depth="2" NCoef="0" IVar="-1" Cut="0.0000000000000000e+00" cType="1" res="3.3711262047290802e-02" rms="2.0196838676929474e-01" purity="9.4327473640441895e-01" nType="-99"/>
        </Node>
      </Node>
    </BinaryTree>
    <BinaryTree type="DecisionTree" boostWeight="1.0000000000000000e+00" itree="26">
      <Node pos="s" depth="0" NCoef="0" IVar="3" Cut="1.2128591918945312e+02" cType="1" res="-5.9473927831277251e-04" rms="3.0980014801025391e-01" purity="4.9924692511558533e-01" nType="0">
        <Node pos="l" depth="1" NCoef="0" IVar="7" Cut="3.3219642639160156e+00" cType="1" res="-3.3859316259622574e-02" rms="3.4505885839462280e-01" purity="2.1933196485042572e-01" nType="0">
          <Node pos="l" depth="2" NCoef="0" IVar="-1" Cut="0.0000000000000000e+00" cType="1" res="-1.8161768093705177e-02" rms="3.2468608021736145e-01" purity="1.8410751223564148e-01" nType="-99"/>
          <Node pos="r" depth="2" NCoef="0" IVar="-1" Cut="0.0000000000000000e+00" cType="1" res="6.8352208472788334e-03" rms="4.0025189518928528e-01" purity="3.3630958199501038e-01" nType="-99"/>
        </Node>
        <Node pos="r" depth="1" NCoef="0" IVar="6" Cut="1.7952226400375366e+00" cType="1" res="4.2173538357019424e-02" rms="2.5107401609420776e-01" purity="8.5913360118865967e-01" nType="0">
          <Node pos="l" depth="2" NCoef="0" IVar="-1" Cut="0.0000000000000000e+00" cType="1" res="-3.3299665898084641e-02" rms="3.6558982729911804e-01" purity="2.6262685656547546e-01" nType="-99"/>
          <Node pos="r" depth="2" NCoef="0" IVar="-1" Cut="0.0000000000000000e+00" cType="1" res="2.6543051004409790e-02" rms="2.3805668950080872e-01" purity="8.9863717555999756e-01" nType="-99"/>
        </Node>
      </Node>
    </BinaryTree>
    <BinaryTree type="DecisionTree" boostWeight="1.0000000000000000e+00" itree="27">
      <Node pos="s" depth="0" NCoef="0" IVar="0" Cut="2.9257489013671875e+02" cType="1" res="1.2886033800896257e-04" rms="3.0918094515800476e-01" purity="5.0006508827209473e-01" nType="0">
        <Node pos="l" depth="1" NCoef="0" IVar="8" Cut="1.4202953875064850e-01" cType="1" res="-2.1316520869731903e-02" rms="3.5220775008201599e-01" purity="3.2890260219573975e-01" nType="0">
          <Node pos="l" depth="2" NCoef="0" IVar="-1" Cut="0.0000000000000000e+00" cType="1" res="3.5466426052153111e-03" rms="3.7121200561523438e-01" purity="4.6983671188354492e-01" nType="-99"/>
          <Node pos="r" depth="2" NCoef="0" IVar="-1" Cut="0.0000000000000000e+00" cType="1" res="-1.9046956673264503e-02" rms="3.2942056655883789e-01" purity="1.9039008021354675e-01" nType="-99"/>
        </Node>
        <Node pos="r" depth="1" NCoef="0" IVar="8" Cut="4.6699360013008118e-02" cType="1" res="6.1600096523761749e-02" rms="9.4473317265510559e-02" purity="9.9068677425384521e-01" nType="0">
          <Node pos="l" depth="2" NCoef="0" IVar="-1" Cut="0.0000000000000000e+00" cType="1" res="4.9920327961444855e-02" rms="6.4856983721256256e-02" purity="9.9572235345840454e-01" nType="-99"/>
          <Node pos="r" depth="2" NCoef="0" IVar="-1" Cut="0.0000000000000000e+00" cType="1" res="4.5253813266754150e-02" rms="1.1588963121175766e-01" purity="9.8586714267730713e-01" nType="-99"/>
        </Node>
      </Node>
    </BinaryTree>
    <BinaryTree type="DecisionTree" boostWeight="1.0000000000000000e+00" itree="28">
      <Node pos="s" depth="0" NCoef="0" IVar="6" Cut="2.9919953346252441e+00" cType="1" res="2.7868864708580077e-04" rms="3.0871355533599854e-01" purity="4.9910637736320496e-01" nType="0">
        <Node pos="l" depth="1" NCoef="0" IVar="2" Cut="2.2644317626953125e+02" cType="1" res="-2.6604762300848961e-02" rms="3.2418376207351685e-01" purity="3.0898672342300415e-01" nType="0">
          <Node pos="l" depth="2" NCoef="0" IVar="-1" Cut="0.0000000000000000e+00" cType="1" res="-1.6383400186896324e-02" rms="3.1261518597602844e-01" purity="1.5878252685070038e-01" nType="-99"/>
          <Node pos="r" depth="2" NCoef="0" IVar="-1" Cut="0.0000000000000000e+00" cType="1" res="7.1190516464412212e-03" rms="3.5086321830749512e-01" purity="7.3415482044219971e-01" nType="-99"/>
        </Node>
        <Node pos="r" depth="1" NCoef="0" IVar="8" Cut="1.4108538627624512e-01" cType="1" res="4.0956921875476837e-02" rms="2.7882003784179688e-01" purity="7.8678262233734131e-01" nType="0">
          <Node pos="l" depth="2" NCoef="0" IVar="-1" Cut="0.0000000000000000e+00" cType="1" res="2.6543715968728065e-02" rms="2.5264120101928711e-01" purity="8.6373251676559448e-01" nType="-99"/>
          <Node pos="r" depth="2" NCoef="0" IVar="-1" Cut="0.0000000000000000e+00" cType="1" res="-2.2087981924414635e-03" rms="3.5602420568466187e-01" purity="4.9990612268447876e-01" nType="-99"/>
        </Node>
      </Node>
    </BinaryTree>
    <BinaryTree type="DecisionTree" boostWeight="1.0000000000000000e+00" itree="29">
      <Node pos="s" depth="0" NCoef="0" IVar="7" Cut="2.9101505279541016e+00" cType="1" res="-2.1042587468400598e-04" rms="3.0910503864288330e-01" purity="4.9756950139999390e-01" nType="0">
        <Node pos="l" depth="1" NCoef="0" IVar="7" Cut="2.3573787212371826e+00" cType="1" res="-4.7446433454751968e-02" rms="2.9223543405532837e-01" purity="1.9086600840091705e-01" nType="0">
          <Node pos="l" depth="2" NCoef="0" IVar="-1" Cut="0.0000000000000000e+00" cType="1" res="-3.3657215535640717e-02" rms="2.4254755675792694e-01" purity="9.4704903662204742e-02" nType="-99"/>
          <Node pos="r" depth="2" NCoef="0" IVar="-1" Cut="0.0000000000000000e+00" cType="1" res="-1.0668215341866016e-02" rms="3.2354122400283813e-01" purity="2.6402959227561951e-01" nType="-99"/>
        </Node>
        <Node pos="r" depth="1" NCoef="0" IVar="8" Cut="2.3760560154914856e-01" cType="1" res="2.1404100582003593e-02" rms="3.1416505575180054e-01" purity="6.3791263103485107e-01" nType="0">
          <Node pos="l" depth="2" NCoef="0" IVar="-1" Cut="0.0000000000000000e+00" cType="1" res="1.4522734098136425e-02" rms="3.0756562948226929e-01" purity="7.1487802267074585e-01" nType="-99"/>
          <Node pos="r" depth="2" NCoef="0" IVar="-1" Cut="0.0000000000000000e+00" cType="1" res="-1.2565718032419682e-02" rms="3.3561083674430847e-01" purity="3.0233585834503174e-01" nType="-99"/>
        </Node>
      </Node>
    </BinaryTree>
    <BinaryTree type="DecisionTree" boostWeight="1.0000000000000000e+00" itree="30">
      <Node pos="s" depth="0" NCoef="0" IVar="0" Cut="2.9256985473632812e+02" cType="1" res="1.8856048118323088e-03" rms="3.0800056457519531e-01" purity="5.0075238943099976e-01" nType="0">
        <Node pos="l" depth="1" NCoef="0" IVar="2" Cut="1.2474224090576172e+02" cType="1" res="-1.5545814298093319e-02" rms="3.5091114044189453e-01" purity="3.3273690938949585e-01" nType="0">
          <Node pos="l" depth="2" NCoef="0" IVar="-1" Cut="0.0000000000000000e+00" cType="1" res="-2.3169035091996193e-02" rms="2.7666330337524414e-01" purity="1.0262629389762878e-01" nType="-99"/>
          <Node pos="r" depth="2" NCoef="0" IVar="-1" Cut="0.0000000000000000e+00" cType="1" res="2.5659920647740364e-03" rms="3.8654631376266479e-01" purity="4.6985569596290588e-01" nType="-99"/>
        </Node>
        <Node pos="r" depth="1" NCoef="0" IVar="8" Cut="4.6626571565866470e-02" cType="1" res="5.2701748907566071e-02" rms="9.4715118408203125e-02" purity="9.9055171012878418e-01" nType="0">
          <Node pos="l" depth="2" NCoef="0" IVar="-1" Cut="0.0000000000000000e+00" cType="1" res="4.8971503973007202e-02" rms="6.3576340675354004e-02" purity="9.9589353799819946e-01" nType="-99"/>
          <Node pos="r" depth="2" NCoef="0" IVar="-1" Cut="0.0000000000000000e+00" cType="1" res="4.3527506291866302e-02" rms="1.1703272163867950e-01" purity="9.8541325330734253e-01" nType="-99"/>
        </Node>
      </Node>
    </BinaryTree>
    <BinaryTree type="DecisionTree" boostWeight="1.0000000000000000e+00" itree="31">
      <Node pos="s" depth="0" NCoef="0" IVar="9" Cut="1.3866162109375000e+02" cType="1" res="-1.4531161868944764e-03" rms="3.0605792999267578e-01" purity="4.9842965602874756e-01" nType="0">
        <Node pos="l" depth="1" NCoef="0" IVar="7" Cut="3.7571544647216797e+00" cType="1" res="-3.2239764928817749e-02" rms="3.4207057952880859e-01" purity="1.7767679691314697e-01" nType="0">
          <Node pos="l" depth="2" NCoef="0" IVar="-1" Cut="0.0000000000000000e+00" cType="1" res="-1.4932709746062756e-02" rms="3.3213117718696594e-01" purity="1.6224288940429688e-01" nType="-99"/>
          <Node pos="r" depth="2" NCoef="0" IVar="-1" Cut="0.0000000000000000e+00" cType="1" res="1.2930541299283504e-02" rms="4.1061058640480042e-01" purity="3.1107449531555176e-01" nType="-99"/>
        </Node>
        <Node pos="r" depth="1" NCoef="0" IVar="7" Cut="2.9375798702239990e+00" cType="1" res="2.7036989107728004e-02" rms="2.6529783010482788e-01" purity="7.9525589942932129e-01" nType="0">
          <Node pos="l" depth="2" NCoef="0" IVar="-1" Cut="0.0000000000000000e+00" cType="1" res="-6.9214571267366409e-03" rms="3.2874378561973572e-01" purity="4.5373901724815369e-01" nType="-99"/>
          <Node pos="r" depth="2" NCoef="0" IVar="-1" Cut="0.0000000000000000e+00" cType="1" res="2.0519258454442024e-02" rms="2.4733553826808929e-01" purity="8.7351989746093750e-01" nType="-99"/>
        </Node>
      </Node>
    </BinaryTree>
    <BinaryTree type="DecisionTree" boostWeight="1.0000000000000000e+00" itree="32">
      <Node pos="s" depth="0" NCoef="0" IVar="6" Cut="2.5431988239288330e+00" cType="1" res="-5.7810021098703146e-04" rms="3.0555197596549988e-01" purity="5.0020027160644531e-01" nType="0">
        <Node pos="l" depth="1" NCoef="0" IVar="7" Cut="1.9558663368225098e+00" cType="1" res="-4.3835099786520004e-02" rms="2.7147307991981506e-01" purity="1.4154700934886932e-01" nType="0">
          <Node pos="l" depth="2" NCoef="0" IVar="-1" Cut="0.0000000000000000e+00" cType="1" res="-3.4697473049163818e-02" rms="2.3367837071418762e-01" purity="7.9671353101730347e-02" nType="-99"/>
          <Node pos="r" depth="2" NCoef="0" IVar="-1" Cut="0.0000000000000000e+00" cType="1" res="-1.4450426213443279e-02" rms="2.8520333766937256e-01" purity="1.6775150597095490e-01" nType="-99"/>
        </Node>
        <Node pos="r" depth="1" NCoef="0" IVar="8" Cut="2.3609288036823273e-01" cType="1" res="1.6088962554931641e-02" rms="3.1613287329673767e-01" purity="6.3839048147201538e-01" nType="0">
          <Node pos="l" depth="2" NCoef="0" IVar="-1" Cut="0.0000000000000000e+00" cType="1" res="1.1789510957896709e-02" rms="3.1173610687255859e-01" purity="7.0567721128463745e-01" nType="-99"/>
          <Node pos="r" depth="2" NCoef="0" IVar="-1" Cut="0.0000000000000000e+00" cType="1" res="-1.3486118055880070e-02" rms="3.3118638396263123e-01" purity="3.1670892238616943e-01" nType="-99"/>
        </Node>
      </Node>
    </BinaryTree>
    <BinaryTree type="DecisionTree" boostWeight="1.0000000000000000e+00" itree="33">
      <Node pos="s" depth="0" NCoef="0" IVar="0" Cut="2.9256945800781250e+02" cType="1" res="2.4595751892775297e-04" rms="3.0564200878143311e-01" purity="4.9984681606292725e-01" nType="0">
        <Node pos="l" depth="1" NCoef="0" IVar="7" Cut="3.3297760486602783e+00" cType="1" res="-1.5345130115747452e-02" rms="3.4883439540863037e-01" purity="3.2966697216033936e-01" nType="0">
          <Node pos="l" depth="2" NCoef="0" IVar="-1" Cut="0.0000000000000000e+00" cType="1" res="-1.1242607608437538e-02" rms="3.3670797944068909e-01" purity="2.8691819310188293e-01" nType="-99"/>
          <Node pos="r" depth="2" NCoef="0" IVar="-1" Cut="0.0000000000000000e+00" cType="1" res="1.0182017460465431e-02" rms="3.8177746534347534e-01" purity="4.6834534406661987e-01" nType="-99"/>
        </Node>
        <Node pos="r" depth="1" NCoef="0" IVar="8" Cut="4.6696327626705170e-02" cType="1" res="4.5182585716247559e-02" rms="9.6031323075294495e-02" purity="9.9033915996551514e-01" nType="0">
          <Node pos="l" depth="2" NCoef="0" IVar="-1" Cut="0.0000000000000000e+00" cType="1" res="4.7363396733999252e-02" rms="6.7338101565837860e-02" purity="9.9542289972305298e-01" nType="-99"/>
          <Node pos="r" depth="2" NCoef="0" IVar="-1" Cut="0.0000000000000000e+00" cType="1" res="4.2103223502635956e-02" rms="1.1727382987737656e-01" purity="9.8539936542510986e-01" nType="-99"/>
        </Node>
      </Node>
    </BinaryTree>
    <BinaryTree type="DecisionTree" boostWeight="1.0000000000000000e+00" itree="34">
      <Node pos="s" depth="0" NCoef="0" IVar="9" Cut="2.3011274719238281e+02" cType="1" res="6.2493316363543272e-04" rms="3.0632105469703674e-01" purity="4.9887877702713013e-01" nType="0">
        <Node pos="l" depth="1" NCoef="0" IVar="7" Cut="3.7403562068939209e+00" cType="1" res="-1.5974724665284157e-02" rms="3.5266056656837463e-01" purity="2.8520670533180237e-01" nType="0">
          <Node pos="l" depth="2" NCoef="0" IVar="-1" Cut="0.0000000000000000e+00" cType="1" res="-8.3680041134357452e-03" rms="3.4655377268791199e-01" purity="2.7070376276969910e-01" nType="-99"/>
          <Node pos="r" depth="2" NCoef="0" IVar="-1" Cut="0.0000000000000000e+00" cType="1" res="1.4380521140992641e-02" rms="3.9833742380142212e-01" purity="4.1685804724693298e-01" nType="-99"/>
        </Node>
        <Node pos="r" depth="1" NCoef="0" IVar="3" Cut="1.2994337463378906e+02" cType="1" res="3.4392803907394409e-02" rms="1.7323999106884003e-01" purity="9.3354147672653198e-01" nType="0">
          <Node pos="l" depth="2" NCoef="0" IVar="-1" Cut="0.0000000000000000e+00" cType="1" res="3.3899565460160375e-04" rms="3.4397098422050476e-01" purity="6.3948714733123779e-01" nType="-99"/>
          <Node pos="r" depth="2" NCoef="0" IVar="-1" Cut="0.0000000000000000e+00" cType="1" res="3.5631947219371796e-02" rms="1.3314571976661682e-01" purity="9.7386312484741211e-01" nType="-99"/>
        </Node>
      </Node>
    </BinaryTree>
    <BinaryTree type="DecisionTree" boostWeight="1.0000000000000000e+00" itree="35">
      <Node pos="s" depth="0" NCoef="0" IVar="9" Cut="2.5310260009765625e+02" cType="1" res="3.4895160933956504e-04" rms="3.0666348338127136e-01" purity="4.9871781468391418e-01" nType="0">
        <Node pos="l" depth="1" NCoef="0" IVar="2" Cut="1.1694722747802734e+02" cType="1" res="-1.4060075394809246e-02" rms="3.4982591867446899e-01" purity="3.0794131755828857e-01" nType="0">
          <Node pos="l" depth="2" NCoef="0" IVar="-1" Cut="0.0000000000000000e+00" cType="1" res="-2.1270314231514931e-02" rms="2.6802560687065125e-01" purity="9.3730516731739044e-02" nType="-99"/>
          <Node pos="r" depth="2" NCoef="0" IVar="-1" Cut="0.0000000000000000e+00" cType="1" res="6.3906330615282059e-04" rms="3.8351386785507202e-01" purity="4.1589134931564331e-01" nType="-99"/>
        </Node>
        <Node pos="r" depth="1" NCoef="0" IVar="0" Cut="3.0970382690429688e+02" cType="1" res="3.4315727651119232e-02" rms="1.6000898182392120e-01" purity="9.4844031333923340e-01" nType="0">
          <Node pos="l" depth="2" NCoef="0" IVar="-1" Cut="0.0000000000000000e+00" cType="1" res="1.1276890523731709e-02" rms="2.9751184582710266e-01" purity="8.0676746368408203e-01" nType="-99"/>
          <Node pos="r" depth="2" NCoef="0" IVar="-1" Cut="0.0000000000000000e+00" cType="1" res="4.6663239598274231e-02" rms="6.9032363593578339e-02" purity="9.9524497985839844e-01" nType="-99"/>
        </Node>
      </Node>
    </BinaryTree>
    <BinaryTree type="DecisionTree" boostWeight="1.0000000000000000e+00" itree="36">
      <Node pos="s" depth="0" NCoef="0" IVar="6" Cut="2.2440023422241211e+00" cType="1" res="1.7764581134542823e-03" rms="3.0708649754524231e-01" purity="5.0116473436355591e-01" nType="0">
        <Node pos="l" depth="1" NCoef="0" IVar="6" Cut="1.6028628349304199e+00" cType="1" res="-4.2515452951192856e-02" rms="2.5928437709808350e-01" purity="1.1306621879339218e-01" nType="0">
          <Node pos="l" depth="2" NCoef="0" IVar="-1" Cut="0.0000000000000000e+00" cType="1" res="-2.8719583526253700e-02" rms="2.4326647818088531e-01" purity="8.7377808988094330e-02" nType="-99"/>
          <Node pos="r" depth="2" NCoef="0" IVar="-1" Cut="0.0000000000000000e+00" cType="1" res="-1.3195096515119076e-02" rms="2.7595138549804688e-01" purity="1.4299398660659790e-01" nType="-99"/>
        </Node>
        <Node pos="r" depth="1" NCoef="0" IVar="8" Cut="1.4165587723255157e-01" cType="1" res="1.2503104284405708e-02" rms="3.1665229797363281e-01" purity="5.9515470266342163e-01" nType="0">
          <Node pos="l" depth="2" NCoef="0" IVar="-1" Cut="0.0000000000000000e+00" cType="1" res="1.2979037128388882e-02" rms="3.0255424976348877e-01" purity="7.2314143180847168e-01" nType="-99"/>
          <Node pos="r" depth="2" NCoef="0" IVar="-1" Cut="0.0000000000000000e+00" cType="1" res="-5.7594086974859238e-03" rms="3.3911409974098206e-01" purity="3.6198866367340088e-01" nType="-99"/>
        </Node>
      </Node>
    </BinaryTree>
    <BinaryTree type="DecisionTree" boostWeight="1.0000000000000000e+00" itree="37">
      <Node pos="s" depth="0" NCoef="0" IVar="3" Cut="1.3436734008789062e+02" cType="1" res="-6.6741841146722436e-04" rms="3.0393740534782410e-01" purity="5.0009357929229736e-01" nType="0">
        <Node pos="l" depth="1" NCoef="0" IVar="0" Cut="8.3470687866210938e+01" cType="1" res="-1.7312886193394661e-02" rms="3.4541171789169312e-01" purity="2.3940862715244293e-01" nType="0">
          <Node pos="l" depth="2" NCoef="0" IVar="-1" Cut="0.0000000000000000e+00" cType="1" res="-1.8558176234364510e-02" rms="2.6925188302993774e-01" purity="8.3576202392578125e-02" nType="-99"/>
          <Node pos="r" depth="2" NCoef="0" IVar="-1" Cut="0.0000000000000000e+00" cType="1" res="1.5392949571833014e-03" rms="4.0962401032447815e-01" purity="4.0406405925750732e-01" nType="-99"/>
        </Node>
        <Node pos="r" depth="1" NCoef="0" IVar="0" Cut="2.0798245239257812e+02" cType="1" res="2.4580748751759529e-02" rms="2.2465585172176361e-01" purity="8.9550560712814331e-01" nType="0">
          <Node pos="l" depth="2" NCoef="0" IVar="-1" Cut="0.0000000000000000e+00" cType="1" res="-7.8042163513600826e-03" rms="4.1278675198554993e-01" purity="5.4498130083084106e-01" nType="-99"/>
          <Node pos="r" depth="2" NCoef="0" IVar="-1" Cut="0.0000000000000000e+00" cType="1" res="3.1556874513626099e-02" rms="1.5439996123313904e-01" purity="9.7140514850616455e-01" nType="-99"/>
        </Node>
      </Node>
    </BinaryTree>
    <BinaryTree type="DecisionTree" boostWeight="1.0000000000000000e+00" itree="38">
      <Node pos="s" depth="0" NCoef="0" IVar="9" Cut="1.0565127563476562e+02" cType="1" res="1.7006731359288096e-03" rms="3.0594709515571594e-01" purity="5.0188142061233521e-01" nType="0">
        <Node pos="l" depth="1" NCoef="0" IVar="4" Cut="3.5367681980133057e+00" cType="1" res="-2.4125810712575912e-02" rms="3.2955330610275269e-01" purity="1.4752663671970367e-01" nType="0">
          <Node pos="l" depth="2" NCoef="0" IVar="-1" Cut="0.0000000000000000e+00" cType="1" res="-1.2257673777639866e-02" rms="3.2085847854614258e-01" purity="1.3641388714313507e-01" nType="-99"/>
          <Node pos="r" depth="2" NCoef="0" IVar="-1" Cut="0.0000000000000000e+00" cType="1" res="1.5601206570863724e-02" rms="4.1756755113601685e-01" purity="2.8827962279319763e-01" nType="-99"/>
        </Node>
        <Node pos="r" depth="1" NCoef="0" IVar="7" Cut="1.8582053184509277e+00" cType="1" res="1.6543079167604446e-02" rms="2.9047983884811401e-01" purity="7.0552808046340942e-01" nType="0">
          <Node pos="l" depth="2" NCoef="0" IVar="-1" Cut="0.0000000000000000e+00" cType="1" res="-3.0120471492409706e-02" rms="2.7362173795700073e-01" purity="1.2099008262157440e-01" nType="-99"/>
          <Node pos="r" depth="2" NCoef="0" IVar="-1" Cut="0.0000000000000000e+00" cType="1" res="1.0103116743266582e-02" rms="2.9070976376533508e-01" purity="7.3255431652069092e-01" nType="-99"/>
        </Node>
      </Node>
    </BinaryTree>
    <BinaryTree type="DecisionTree" boostWeight="1.0000000000000000e+00" itree="39">
      <Node pos="s" depth="0" NCoef="0" IVar="6" Cut="2.0944039821624756e+00" cType="1" res="2.7627669624052942e-04" rms="3.0463340878486633e-01" purity="4.9944818019866943e-01" nType="0">
        <Node pos="l" depth="1" NCoef="0" IVar="7" Cut="1.4592928886413574e+00" cType="1" res="-4.1861835867166519e-02" rms="2.5133973360061646e-01" purity="9.9556043744087219e-02" nType="0">
          <Node pos="l" depth="2" NCoef="0" IVar="-1" Cut="0.0000000000000000e+00" cType="1" res="-3.5479556769132614e-02" rms="2.3291903734207153e-01" purity="6.6881194710731506e-02" nType="-99"/>
          <Node pos="r" depth="2" NCoef="0" IVar="-1" Cut="0.0000000000000000e+00" cType="1" res="-1.8330961465835571e-02" rms="2.5694563984870911e-01" purity="1.1077104508876801e-01" nType="-99"/>
        </Node>
        <Node pos="r" depth="1" NCoef="0" IVar="8" Cut="2.8543168306350708e-01" cType="1" res="8.7967915460467339e-03" rms="3.1362584233283997e-01" purity="5.8030813932418823e-01" nType="0">
          <Node pos="l" depth="2" NCoef="0" IVar="-1" Cut="0.0000000000000000e+00" cType="1" res="7.6712896116077900e-03" rms="3.1389459967613220e-01" purity="6.3923412561416626e-01" nType="-99"/>
          <Node pos="r" depth="2" NCoef="0" IVar="-1" Cut="0.0000000000000000e+00" cType="1" res="-1.4244093559682369e-02" rms="3.0851179361343384e-01" purity="2.5924181938171387e-01" nType="-99"/>
        </Node>
      </Node>
    </BinaryTree>
    <BinaryTree type="DecisionTree" boostWeight="1.0000000000000000e+00" itree="40">
      <Node pos="s" depth="0" NCoef="0" IVar="3" Cut="1.2128591918945312e+02" cType="1" res="7.7660754323005676e-04" rms="3.0532714724540710e-01" purity="4.9910247325897217e-01" nType="0">
        <Node pos="l" depth="1" NCoef="0" IVar="4" Cut="3.5872089862823486e+00" cType="1" res="-1.5151751227676868e-02" rms="3.4406146407127380e-01" purity="2.2116290032863617e-01" nType="0">
          <Node pos="l" depth="2" NCoef="0" IVar="-1" Cut="0.0000000000000000e+00" cType="1" res="-8.3103338256478310e-03" rms="3.3707943558692932e-01" purity="2.0594595372676849e-01" nType="-99"/>
          <Node pos="r" depth="2" NCoef="0" IVar="-1" Cut="0.0000000000000000e+00" cType="1" res="1.7961919307708740e-02" rms="4.1251695156097412e-01" purity="4.0576046705245972e-01" nType="-99"/>
        </Node>
        <Node pos="r" depth="1" NCoef="0" IVar="6" Cut="1.7952063083648682e+00" cType="1" res="2.1579148247838020e-02" rms="2.4415114521980286e-01" purity="8.6209338903427124e-01" nType="0">
          <Node pos="l" depth="2" NCoef="0" IVar="-1" Cut="0.0000000000000000e+00" cType="1" res="-1.9500868394970894e-02" rms="3.5444957017898560e-01" purity="2.4929176270961761e-01" nType="-99"/>
          <Node pos="r" depth="2" NCoef="0" IVar="-1" Cut="0.0000000000000000e+00" cType="1" res="1.7911197617650032e-02" rms="2.3438428342342377e-01" purity="9.0155529975891113e-01" nType="-99"/>
        </Node>
      </Node>
    </BinaryTree>
    <BinaryTree type="DecisionTree" boostWeight="1.0000000000000000e+00" itree="41">
      <Node pos="s" depth="0" NCoef="0" IVar="0" Cut="3.0950924682617188e+02" cType="1" res="-5.3695385577157140e-04" rms="3.0322435498237610e-01" purity="5.0019508600234985e-01" nType="0">
        <Node pos="l" depth="1" NCoef="0" IVar="7" Cut="3.3902676105499268e+00" cType="1" res="-1.0674009099602699e-02" rms="3.4456753730773926e-01" purity="3.4217438101768494e-01" nType="0">
          <Node pos="l" depth="2" NCoef="0" IVar="-1" Cut="0.0000000000000000e+00" cType="1" res="-8.7554343044757843e-03" rms="3.3447152376174927e-01" purity="3.0701962113380432e-01" nType="-99"/>
          <Node pos="r" depth="2" NCoef="0" IVar="-1" Cut="0.0000000000000000e+00" cType="1" res="1.0716926306486130e-02" rms="3.7784293293952942e-01" purity="4.7724691033363342e-01" nType="-99"/>
        </Node>
        <Node pos="r" depth="1" NCoef="0" IVar="-1" Cut="0.0000000000000000e+00" cType="1" res="4.2931038886308670e-02" rms="8.4678441286087036e-02" purity="9.9261355400085449e-01" nType="-99"/>
      </Node>
    </BinaryTree>
    <BinaryTree type="DecisionTree" boostWeight="1.0000000000000000e+00" itree="42">
      <Node pos="s" depth="0" NCoef="0" IVar="6" Cut="2.9919955730438232e+00" cType="1" res="8.0415216507390141e-04" rms="3.0393496155738831e-01" purity="5.0184309482574463e-01" nType="0">
        <Node pos="l" depth="1" NCoef="0" IVar="7" Cut="2.4264755249023438e+00" cType="1" res="-1.3121583499014378e-02" rms="3.2049643993377686e-01" purity="3.1058529019355774e-01" nType="0">
          <Node pos="l" depth="2" NCoef="0" IVar="-1" Cut="0.0000000000000000e+00" cType="1" res="-2.1616313606500626e-02" rms="2.4191704392433167e-01" purity="1.0106182098388672e-01" nType="-99"/>
          <Node pos="r" depth="2" NCoef="0" IVar="-1" Cut="0.0000000000000000e+00" cType="1" res="-2.1007605828344822e-03" rms="3.4182760119438171e-01" purity="3.7877395749092102e-01" nType="-99"/>
        </Node>
        <Node pos="r" depth="1" NCoef="0" IVar="8" Cut="2.8543218970298767e-01" cType="1" res="2.1813228726387024e-02" rms="2.7575492858886719e-01" purity="7.9038429260253906e-01" nType="0">
          <Node pos="l" depth="2" NCoef="0" IVar="-1" Cut="0.0000000000000000e+00" cType="1" res="1.4470881782472134e-02" rms="2.7002373337745667e-01" purity="8.2301038503646851e-01" nType="-99"/>
          <Node pos="r" depth="2" NCoef="0" IVar="-1" Cut="0.0000000000000000e+00" cType="1" res="-1.1331694200634956e-02" rms="3.3854937553405762e-01" purity="3.5621890425682068e-01" nType="-99"/>
        </Node>
      </Node>
    </BinaryTree>
    <BinaryTree type="DecisionTree" boostWeight="1.0000000000000000e+00" itree="43">
      <Node pos="s" depth="0" NCoef="0" IVar="8" Cut="9.5123797655105591e-02" cType="1" res="7.1822950849309564e-04" rms="3.0343398451805115e-01" purity="5.0112080574035645e-01" nType="0">
        <Node pos="l" depth="1" NCoef="0" IVar="7" Cut="2.8320140838623047e+00" cType="1" res="1.9013252109289169e-02" rms="2.8515094518661499e-01" purity="7.0096844434738159e-01" nType="0">
          <Node pos="l" depth="2" NCoef="0" IVar="-1" Cut="0.0000000000000000e+00" cType="1" res="-1.1009718291461468e-02" rms="2.9847040772438049e-01" purity="2.0468066632747650e-01" nType="-99"/>
          <Node pos="r" depth="2" NCoef="0" IVar="-1" Cut="0.0000000000000000e+00" cType="1" res="1.4228197745978832e-02" rms="2.8210914134979248e-01" purity="7.8764832019805908e-01" nType="-99"/>
        </Node>
        <Node pos="r" depth="1" NCoef="0" IVar="9" Cut="2.7727539062500000e+02" cType="1" res="-1.4670053496956825e-02" rms="3.1718325614929199e-01" purity="3.3302518725395203e-01" nType="0">
          <Node pos="l" depth="2" NCoef="0" IVar="-1" Cut="0.0000000000000000e+00" cType="1" res="-8.4826312959194183e-03" rms="3.2889440655708313e-01" purity="2.4497631192207336e-01" nType="-99"/>
          <Node pos="r" depth="2" NCoef="0" IVar="-1" Cut="0.0000000000000000e+00" cType="1" res="1.7022177577018738e-02" rms="2.2787415981292725e-01" purity="8.8026982545852661e-01" nType="-99"/>
        </Node>
      </Node>
    </BinaryTree>
    <BinaryTree type="DecisionTree" boostWeight="1.0000000000000000e+00" itree="44">
      <Node pos="s" depth="0" NCoef="0" IVar="0" Cut="3.0183435058593750e+02" cType="1" res="8.9319108519703150e-04" rms="3.0352333188056946e-01" purity="5.0154590606689453e-01" nType="0">
        <Node pos="l" depth="1" NCoef="0" IVar="0" Cut="7.7725875854492188e+01" cType="1" res="-7.4647953733801842e-03" rms="3.4570199251174927e-01" purity="3.3998310565948486e-01" nType="0">
          <Node pos="l" depth="2" NCoef="0" IVar="-1" Cut="0.0000000000000000e+00" cType="1" res="-1.7098089680075645e-02" rms="2.6197090744972229e-01" purity="7.8086145222187042e-02" nType="-99"/>
          <Node pos="r" depth="2" NCoef="0" IVar="-1" Cut="0.0000000000000000e+00" cType="1" res="2.3349069524556398e-03" rms="3.8509762287139893e-01" purity="4.9109339714050293e-01" nType="-99"/>
        </Node>
        <Node pos="r" depth="1" NCoef="0" IVar="1" Cut="1.1571822357177734e+02" cType="1" res="2.6236182078719139e-02" rms="9.0777248144149780e-02" purity="9.9143463373184204e-01" nType="0">
          <Node pos="l" depth="2" NCoef="0" IVar="-1" Cut="0.0000000000000000e+00" cType="1" res="4.0448844432830811e-02" rms="9.5841191709041595e-02" purity="9.9044620990753174e-01" nType="-99"/>
          <Node pos="r" depth="2" NCoef="0" IVar="-1" Cut="0.0000000000000000e+00" cType="1" res="3.9489563554525375e-02" rms="8.5286565124988556e-02" purity="9.9243217706680298e-01" nType="-99"/>
        </Node>
      </Node>
    </BinaryTree>
    <BinaryTree type="DecisionTree" boostWeight="1.0000000000000000e+00" itree="45">
      <Node pos="s" depth="0" NCoef="0" IVar="8" Cut="3.3300349116325378e-01" cType="1" res="2.6889253058470786e-04" rms="3.0481570959091187e-01" purity="5.0010621547698975e-01" nType="0">
        <Node pos="l" depth="1" NCoef="0" IVar="3" Cut="9.6942718505859375e+01" cType="1" res="6.0160355642437935e-03" rms="3.0801194906234741e-01" purity="5.5726313591003418e-01" nType="0">
          <Node pos="l" depth="2" NCoef="0" IVar="-1" Cut="0.0000000000000000e+00" cType="1" res="-4.1290521621704102e-03" rms="3.5601958632469177e-01" purity="2.2225365042686462e-01" nType="-99"/>
          <Node pos="r" depth="2" NCoef="0" IVar="-1" Cut="0.0000000000000000e+00" cType="1" res="1.1409548111259937e-02" rms="2.6577523350715637e-01" purity="8.0799138545989990e-01" nType="-99"/>
        </Node>
        <Node pos="r" depth="1" NCoef="0" IVar="9" Cut="1.4640058898925781e+02" cType="1" res="-3.0415385961532593e-02" rms="2.8519618511199951e-01" purity="1.9494229555130005e-01" nType="0">
          <Node pos="l" depth="2" NCoef="0" IVar="-1" Cut="0.0000000000000000e+00" cType="1" res="-1.8594967201352119e-02" rms="2.8928890824317932e-01" purity="1.5300592780113220e-01" nType="-99"/>
          <Node pos="r" depth="2" NCoef="0" IVar="-1" Cut="0.0000000000000000e+00" cType="1" res="-5.3284787572920322e-03" rms="2.7536556124687195e-01" purity="2.8277486562728882e-01" nType="-99"/>
        </Node>
      </Node>
    </BinaryTree>
    <BinaryTree type="DecisionTree" boostWeight="1.0000000000000000e+00" itree="46">
      <Node pos="s" depth="0" NCoef="0" IVar="0" Cut="2.8736441040039062e+02" cType="1" res="-1.0209851898252964e-03" rms="3.0228859186172485e-01" purity="5.0013667345046997e-01" nType="0">
        <Node pos="l" depth="1" NCoef="0" IVar="7" Cut="3.8804051876068115e+00" cType="1" res="-9.9313473328948021e-03" rms="3.4715774655342102e-01" purity="3.2335373759269714e-01" nType="0">
          <Node pos="l" depth="2" NCoef="0" IVar="-1" Cut="0.0000000000000000e+00" cType="1" res="-5.8522336184978485e-03" rms="3.4315773844718933e-01" purity="3.1362390518188477e-01" nType="-99"/>
          <Node pos="r" depth="2" NCoef="0" IVar="-1" Cut="0.0000000000000000e+00" cType="1" res="1.6759423539042473e-02" rms="3.8944911956787109e-01" purity="4.4780224561691284e-01" nType="-99"/>
        </Node>
        <Node pos="r" depth="1" NCoef="0" IVar="5" Cut="2.8425769805908203e+00" cType="1" res="2.3651478812098503e-02" rms="9.9307239055633545e-02" purity="9.8964208364486694e-01" nType="0">
          <Node pos="l" depth="2" NCoef="0" IVar="-1" Cut="0.0000000000000000e+00" cType="1" res="3.6045208573341370e-02" rms="1.1499967426061630e-01" purity="9.8602211475372314e-01" nType="-99"/>
          <Node pos="r" depth="2" NCoef="0" IVar="-1" Cut="0.0000000000000000e+00" cType="1" res="3.8206670433282852e-02" rms="8.4999904036521912e-02" purity="9.9246245622634888e-01" nType="-99"/>
        </Node>
      </Node>
    </BinaryTree>
    <BinaryTree type="DecisionTree" boostWeight="1.0000000000000000e+00" itree="47">
      <Node pos="s" depth="0" NCoef="0" IVar="6" Cut="2.9919929504394531e+00" cType="1" res="-9.9088810384273529e-04" rms="3.0245324969291687e-01" purity="4.9842044711112976e-01" nType="0">
        <Node pos="l" depth="1" NCoef="0" IVar="7" Cut="3.3969535827636719e+00" cType="1" res="-1.2076108716428280e-02" rms="3.1897413730621338e-01" purity="3.0657163262367249e-01" nType="0">
          <Node pos="l" depth="2" NCoef="0" IVar="-1" Cut="0.0000000000000000e+00" cType="1" res="-8.5226632654666901e-03" rms="3.0957552790641785e-01" purity="2.8594219684600830e-01" nType="-99"/>
          <Node pos="r" depth="2" NCoef="0" IVar="-1" Cut="0.0000000000000000e+00" cType="1" res="7.4474923312664032e-03" rms="3.6267802119255066e-01" purity="4.1488099098205566e-01" nType="-99"/>
        </Node>
        <Node pos="r" depth="1" NCoef="0" IVar="8" Cut="2.8543183207511902e-01" cType="1" res="1.5714418143033981e-02" rms="2.7484938502311707e-01" purity="7.8753453493118286e-01" nType="0">
          <Node pos="l" depth="2" NCoef="0" IVar="-1" Cut="0.0000000000000000e+00" cType="1" res="1.1356189846992493e-02" rms="2.7020972967147827e-01" purity="8.2068461179733276e-01" nType="-99"/>
          <Node pos="r" depth="2" NCoef="0" IVar="-1" Cut="0.0000000000000000e+00" cType="1" res="-1.2906486168503761e-02" rms="3.2654982805252075e-01" purity="3.4495818614959717e-01" nType="-99"/>
        </Node>
      </Node>
    </BinaryTree>
    <BinaryTree type="DecisionTree" boostWeight="1.0000000000000000e+00" itree="48">
      <Node pos="s" depth="0" NCoef="0" IVar="3" Cut="1.3443917846679688e+02" cType="1" res="-5.7035789359360933e-04" rms="3.0204007029533386e-01" purity="4.9924832582473755e-01" nType="0">
        <Node pos="l" depth="1" NCoef="0" IVar="7" Cut="3.3236999511718750e+00" cType="1" res="-1.0616961866617203e-02" rms="3.4443852305412292e-01" purity="2.3967230319976807e-01" nType="0">
          <Node pos="l" depth="2" NCoef="0" IVar="-1" Cut="0.0000000000000000e+00" cType="1" res="-8.0772740766406059e-03" rms="3.2751229405403137e-01" purity="2.0220112800598145e-01" nType="-99"/>
          <Node pos="r" depth="2" NCoef="0" IVar="-1" Cut="0.0000000000000000e+00" cType="1" res="5.1790312863886356e-03" rms="3.9363572001457214e-01" purity="3.6245360970497131e-01" nType="-99"/>
        </Node>
        <Node pos="r" depth="1" NCoef="0" IVar="0" Cut="2.0490484619140625e+02" cType="1" res="1.4820390380918980e-02" rms="2.2101321816444397e-01" purity="8.9690196514129639e-01" nType="0">
          <Node pos="l" depth="2" NCoef="0" IVar="-1" Cut="0.0000000000000000e+00" cType="1" res="-6.3134795054793358e-03" rms="4.0896517038345337e-01" purity="5.3837406635284424e-01" nType="-99"/>
          <Node pos="r" depth="2" NCoef="0" IVar="-1" Cut="0.0000000000000000e+00" cType="1" res="2.4713367223739624e-02" rms="1.5562088787555695e-01" purity="9.7056299448013306e-01" nType="-99"/>
        </Node>
      </Node>
    </BinaryTree>
    <BinaryTree type="DecisionTree" boostWeight="1.0000000000000000e+00" itree="49">
      <Node pos="s" depth="0" NCoef="0" IVar="8" Cut="9.5123797655105591e-02" cType="1" res="4.8057874664664268e-04" rms="3.0350127816200256e-01" purity="4.9975919723510742e-01" nType="0">
        <Node pos="l" depth="1" NCoef="0" IVar="6" Cut="2.3936080932617188e+00" cType="1" res="1.3727229088544846e-02" rms="2.8478473424911499e-01" purity="6.9944179058074951e-01" nType="0">
          <Node pos="l" depth="2" NCoef="0" IVar="-1" Cut="0.0000000000000000e+00" cType="1" res="-1.5431504696607590e-02" rms="2.6548534631729126e-01" purity="1.2808761000633240e-01" nType="-99"/>
          <Node pos="r" depth="2" NCoef="0" IVar="-1" Cut="0.0000000000000000e+00" cType="1" res="1.0361501015722752e-02" rms="2.8659221529960632e-01" purity="7.6772886514663696e-01" nType="-99"/>
        </Node>
        <Node pos="r" depth="1" NCoef="0" IVar="4" Cut="3.7176351547241211e+00" cType="1" res="-1.0631336830556393e-02" rms="3.1792864203453064e-01" purity="3.3225601911544800e-01" nType="0">
          <Node pos="l" depth="2" NCoef="0" IVar="-1" Cut="0.0000000000000000e+00" cType="1" res="-6.2789469957351685e-03" rms="3.1492838263511658e-01" purity="3.2137066125869751e-01" nType="-99"/>
          <Node pos="r" depth="2" NCoef="0" IVar="-1" Cut="0.0000000000000000e+00" cType="1" res="1.6272481530904770e-02" rms="3.6295148730278015e-01" purity="5.2549028396606445e-01" nType="-99"/>
        </Node>
      </Node>
    </BinaryTree>
    <BinaryTree type="DecisionTree" boostWeight="1.0000000000000000e+00" itree="50">
      <Node pos="s" depth="0" NCoef="0" IVar="6" Cut="1.6456087827682495e+00" cType="1" res="1.5123769117053598e-04" rms="3.0335810780525208e-01" purity="5.0030833482742310e-01" nType="0">
        <Node pos="l" depth="1" NCoef="0" IVar="0" Cut="9.2131454467773438e+01" cType="1" res="-3.4253794699907303e-02" rms="2.3561067879199982e-01" purity="8.3580940961837769e-02" nType="0">
          <Node pos="l" depth="2" NCoef="0" IVar="-1" Cut="0.0000000000000000e+00" cType="1" res="-2.3153165355324745e-02" rms="1.8137083947658539e-01" purity="3.4823101013898849e-02" nType="-99"/>
          <Node pos="r" depth="2" NCoef="0" IVar="-1" Cut="0.0000000000000000e+00" cType="1" res="-1.9962744787335396e-02" rms="3.2770174741744995e-01" purity="1.9644942879676819e-01" nType="-99"/>
        </Node>
        <Node pos="r" depth="1" NCoef="0" IVar="8" Cut="3.3300349116325378e-01" cType="1" res="4.3805972672998905e-03" rms="3.1040510535240173e-01" purity="5.5153608322143555e-01" nType="0">
          <Node pos="l" depth="2" NCoef="0" IVar="-1" Cut="0.0000000000000000e+00" cType="1" res="4.2786127887666225e-03" rms="3.1228232383728027e-01" purity="5.9968519210815430e-01" nType="-99"/>
          <Node pos="r" depth="2" NCoef="0" IVar="-1" Cut="0.0000000000000000e+00" cType="1" res="-1.1738331988453865e-02" rms="2.9581284523010254e-01" purity="2.2852344810962677e-01" nType="-99"/>
        </Node>
      </Node>
    </BinaryTree>
    <BinaryTree type="DecisionTree" boostWeight="1.0000000000000000e+00" itree="51">
      <Node pos="s" depth="0" NCoef="0" IVar="7" Cut="3.8759326934814453e+00" cType="1" res="-2.4706256226636469e-04" rms="3.0231758952140808e-01" purity="4.9943292140960693e-01" nType="0">
        <Node pos="l" depth="1" NCoef="0" IVar="0" Cut="3.0911102294921875e+02" cType="1" res="-3.4172721207141876e-03" rms="2.9856601357460022e-01" purity="4.9432620406150818e-01" nType="0">
          <Node pos="l" depth="2" NCoef="0" IVar="-1" Cut="0.0000000000000000e+00" cType="1" res="-4.5078098773956299e-03" rms="3.3970043063163757e-01" purity="3.3218216896057129e-01" nType="-99"/>
          <Node pos="r" depth="2" NCoef="0" IVar="-1" Cut="0.0000000000000000e+00" cType="1" res="3.7344563752412796e-02" rms="8.8670685887336731e-02" purity="9.9192273616790771e-01" nType="-99"/>
        </Node>
        <Node pos="r" depth="1" NCoef="0" IVar="4" Cut="3.3272650241851807e+00" cType="1" res="4.2938224971294403e-02" rms="3.4655725955963135e-01" purity="5.6899756193161011e-01" nType="0">
          <Node pos="l" depth="2" NCoef="0" IVar="-1" Cut="0.0000000000000000e+00" cType="1" res="6.7376247607171535e-03" rms="3.8007992506027222e-01" purity="3.2179781794548035e-01" nType="-99"/>
          <Node pos="r" depth="2" NCoef="0" IVar="-1" Cut="0.0000000000000000e+00" cType="1" res="2.3414727300405502e-02" rms="3.2484132051467896e-01" purity="7.1203452348709106e-01" nType="-99"/>
        </Node>
      </Node>
    </BinaryTree>
    <BinaryTree type="DecisionTree" boostWeight="1.0000000000000000e+00" itree="52">
      <Node pos="s" depth="0" NCoef="0" IVar="8" Cut="1.8909537792205811e-01" cType="1" res="-1.5033276285976171e-03" rms="3.0126571655273438e-01" purity="4.9879974126815796e-01" nType="0">
        <Node pos="l" depth="1" NCoef="0" IVar="6" Cut="2.0944075584411621e+00" cType="1" res="6.3282656483352184e-03" rms="3.0105116963386536e-01" purity="6.2523812055587769e-01" nType="0">
          <Node pos="l" depth="2" NCoef="0" IVar="-1" Cut="0.0000000000000000e+00" cType="1" res="-1.7903400585055351e-02" rms="2.4555747210979462e-01" purity="9.6709966659545898e-02" nType="-99"/>
          <Node pos="r" depth="2" NCoef="0" IVar="-1" Cut="0.0000000000000000e+00" cType="1" res="5.1202215254306793e-03" rms="3.0619296431541443e-01" purity="6.8226838111877441e-01" nType="-99"/>
        </Node>
        <Node pos="r" depth="1" NCoef="0" IVar="9" Cut="1.6869317626953125e+02" cType="1" res="-1.7428027465939522e-02" rms="3.0107387900352478e-01" purity="2.4170099198818207e-01" nType="0">
          <Node pos="l" depth="2" NCoef="0" IVar="-1" Cut="0.0000000000000000e+00" cType="1" res="-1.1427092365920544e-02" rms="2.9739612340927124e-01" purity="1.5442582964897156e-01" nType="-99"/>
          <Node pos="r" depth="2" NCoef="0" IVar="-1" Cut="0.0000000000000000e+00" cType="1" res="5.6095258332788944e-04" rms="3.1096392869949341e-01" purity="5.0010561943054199e-01" nType="-99"/>
        </Node>
      </Node>
    </BinaryTree>
    <BinaryTree type="DecisionTree" boostWeight="1.0000000000000000e+00" itree="53">
      <Node pos="s" depth="0" NCoef="0" IVar="3" Cut="1.2131723785400391e+02" cType="1" res="2.7186475927010179e-04" rms="3.0288881063461304e-01" purity="4.9963873624801636e-01" nType="0">
        <Node pos="l" depth="1" NCoef="0" IVar="4" Cut="3.5545139312744141e+00" cType="1" res="-8.5145886987447739e-03" rms="3.4242847561836243e-01" purity="2.2021116316318512e-01" nType="0">
          <Node pos="l" depth="2" NCoef="0" IVar="-1" Cut="0.0000000000000000e+00" cType="1" res="-5.0670709460973740e-03" rms="3.3620026707649231e-01" purity="2.0466631650924683e-01" nType="-99"/>
          <Node pos="r" depth="2" NCoef="0" IVar="-1" Cut="0.0000000000000000e+00" cType="1" res="1.0177905671298504e-02" rms="4.0393954515457153e-01" purity="3.9579224586486816e-01" nType="-99"/>
        </Node>
        <Node pos="r" depth="1" NCoef="0" IVar="7" Cut="2.4411518573760986e+00" cType="1" res="1.1657789349555969e-02" rms="2.4175928533077240e-01" purity="8.6173492670059204e-01" nType="0">
          <Node pos="l" depth="2" NCoef="0" IVar="-1" Cut="0.0000000000000000e+00" cType="1" res="-1.1981779709458351e-02" rms="3.4896141290664673e-01" purity="3.0879342555999756e-01" nType="-99"/>
          <Node pos="r" depth="2" NCoef="0" IVar="-1" Cut="0.0000000000000000e+00" cType="1" res="1.1972931213676929e-02" rms="2.3101036250591278e-01" purity="9.0467071533203125e-01" nType="-99"/>
        </Node>
      </Node>
    </BinaryTree>
    <BinaryTree type="DecisionTree" boostWeight="1.0000000000000000e+00" itree="54">
      <Node pos="s" depth="0" NCoef="0" IVar="7" Cut="4.1532330513000488e+00" cType="1" res="8.2686089444905519e-04" rms="3.0294302105903625e-01" purity="5.0017470121383667e-01" nType="0">
        <Node pos="l" depth="1" NCoef="0" IVar="3" Cut="2.4243789672851562e+02" cType="1" res="-1.1722198687493801e-03" rms="3.0030295252799988e-01" purity="4.9868088960647583e-01" nType="0">
          <Node pos="l" depth="2" NCoef="0" IVar="-1" Cut="0.0000000000000000e+00" cType="1" res="-2.9244117904454470e-03" rms="3.3383125066757202e-01" purity="3.6357012391090393e-01" nType="-99"/>
          <Node pos="r" depth="2" NCoef="0" IVar="-1" Cut="0.0000000000000000e+00" cType="1" res="2.9981864616274834e-02" rms="1.1690898984670639e-01" purity="9.8164576292037964e-01" nType="-99"/>
        </Node>
        <Node pos="r" depth="1" NCoef="0" IVar="-1" Cut="0.0000000000000000e+00" cType="1" res="1.9515695050358772e-02" rms="3.6200088262557983e-01" purity="5.3973895311355591e-01" nType="-99"/>
      </Node>
    </BinaryTree>
    <BinaryTree type="DecisionTree" boostWeight="1.0000000000000000e+00" itree="55">
      <Node pos="s" depth="0" NCoef="0" IVar="6" Cut="2.9919953346252441e+00" cType="1" res="-3.7549980334006250e-04" rms="3.0179092288017273e-01" purity="5.0053960084915161e-01" nType="0">
        <Node pos="l" depth="1" NCoef="0" IVar="4" Cut="3.7645261287689209e+00" cType="1" res="-8.6300866678357124e-03" rms="3.1773504614830017e-01" purity="3.0866658687591553e-01" nType="0">
          <Node pos="l" depth="2" NCoef="0" IVar="-1" Cut="0.0000000000000000e+00" cType="1" res="-5.1599503494799137e-03" rms="3.1503701210021973e-01" purity="2.9852142930030823e-01" nType="-99"/>
          <Node pos="r" depth="2" NCoef="0" IVar="-1" Cut="0.0000000000000000e+00" cType="1" res="1.4144006185233593e-02" rms="3.6619162559509277e-01" purity="5.1953166723251343e-01" nType="-99"/>
        </Node>
        <Node pos="r" depth="1" NCoef="0" IVar="8" Cut="9.3040496110916138e-02" cType="1" res="1.2010592967271805e-02" rms="2.7568158507347107e-01" purity="7.8844690322875977e-01" nType="0">
          <Node pos="l" depth="2" NCoef="0" IVar="-1" Cut="0.0000000000000000e+00" cType="1" res="1.4262207783758640e-02" rms="2.3788490891456604e-01" purity="8.8704061508178711e-01" nType="-99"/>
          <Node pos="r" depth="2" NCoef="0" IVar="-1" Cut="0.0000000000000000e+00" cType="1" res="-1.1765895178541541e-03" rms="3.3830413222312927e-01" purity="5.9147286415100098e-01" nType="-99"/>
        </Node>
      </Node>
    </BinaryTree>
    <BinaryTree type="DecisionTree" boostWeight="1.0000000000000000e+00" itree="56">
      <Node pos="s" depth="0" NCoef="0" IVar="8" Cut="9.5042295753955841e-02" cType="1" res="5.0833879504352808e-04" rms="3.0279627442359924e-01" purity="4.9987167119979858e-01" nType="0">
        <Node pos="l" depth="1" NCoef="0" IVar="7" Cut="2.7702207565307617e+00" cType="1" res="1.1173450388014317e-02" rms="2.8439271450042725e-01" purity="7.0080363750457764e-01" nType="0">
          <Node pos="l" depth="2" NCoef="0" IVar="-1" Cut="0.0000000000000000e+00" cType="1" res="-1.0277947410941124e-02" rms="2.8595110774040222e-01" purity="1.7222364246845245e-01" nType="-99"/>
          <Node pos="r" depth="2" NCoef="0" IVar="-1" Cut="0.0000000000000000e+00" cType="1" res="8.9401844888925552e-03" rms="2.8389248251914978e-01" purity="7.7785199880599976e-01" nType="-99"/>
        </Node>
        <Node pos="r" depth="1" NCoef="0" IVar="4" Cut="3.5822708606719971e+00" cType="1" res="-8.4020318463444710e-03" rms="3.1707969307899475e-01" purity="3.3199924230575562e-01" nType="0">
          <Node pos="l" depth="2" NCoef="0" IVar="-1" Cut="0.0000000000000000e+00" cType="1" res="-5.2554821595549583e-03" rms="3.1384560465812683e-01" purity="3.1691053509712219e-01" nType="-99"/>
          <Node pos="r" depth="2" NCoef="0" IVar="-1" Cut="0.0000000000000000e+00" cType="1" res="9.1719226911664009e-03" rms="3.5248517990112305e-01" purity="5.1552569866180420e-01" nType="-99"/>
        </Node>
      </Node>
    </BinaryTree>
    <BinaryTree type="DecisionTree" boostWeight="1.0000000000000000e+00" itree="57">
      <Node pos="s" depth="0" NCoef="0" IVar="6" Cut="1.1968135833740234e+00" cType="1" res="1.4108362665865570e-04" rms="3.0216407775878906e-01" purity="5.0011909008026123e-01" nType="0">
        <Node pos="l" depth="1" NCoef="0" IVar="4" Cut="2.5253062248229980e+00" cType="1" res="-3.3849868923425674e-02" rms="2.2800830006599426e-01" purity="7.5735315680503845e-02" nType="0">
          <Node pos="l" depth="2" NCoef="0" IVar="-1" Cut="0.0000000000000000e+00" cType="1" res="-3.1347602605819702e-02" rms="2.0288352668285370e-01" purity="5.9704944491386414e-02" nType="-99"/>
          <Node pos="r" depth="2" NCoef="0" IVar="-1" Cut="0.0000000000000000e+00" cType="1" res="-9.5093920826911926e-03" rms="2.6691040396690369e-01" purity="1.0498747974634171e-01" nType="-99"/>
        </Node>
        <Node pos="r" depth="1" NCoef="0" IVar="8" Cut="3.8057541847229004e-01" cType="1" res="2.7661500498652458e-03" rms="3.0699068307876587e-01" purity="5.3289353847503662e-01" nType="0">
          <Node pos="l" depth="2" NCoef="0" IVar="-1" Cut="0.0000000000000000e+00" cType="1" res="2.7829539030790329e-03" rms="3.0912163853645325e-01" purity="5.7069051265716553e-01" nType="-99"/>
          <Node pos="r" depth="2" NCoef="0" IVar="-1" Cut="0.0000000000000000e+00" cType="1" res="-1.0308694094419479e-02" rms="2.8718334436416626e-01" purity="2.1188561618328094e-01" nType="-99"/>
        </Node>
      </Node>
    </BinaryTree>
    <BinaryTree type="DecisionTree" boostWeight="1.0000000000000000e+00" itree="58">
      <Node pos="s" depth="0" NCoef="0" IVar="7" Cut="3.3403115272521973e+00" cType="1" res="-1.1928895401069894e-04" rms="3.0178403854370117e-01" purity="4.9946010112762451e-01" nType="0">
        <Node pos="l" depth="1" NCoef="0" IVar="0" Cut="3.0183828735351562e+02" cType="1" res="-5.3443345241248608e-03" rms="2.9479551315307617e-01" purity="4.6088889241218567e-01" nType="0">
          <Node pos="l" depth="2" NCoef="0" IVar="-1" Cut="0.0000000000000000e+00" cType="1" res="-5.1514217630028725e-03" rms="3.3280313014984131e-01" purity="2.9600831866264343e-01" nType="-99"/>
          <Node pos="r" depth="2" NCoef="0" IVar="-1" Cut="0.0000000000000000e+00" cType="1" res="3.1711965799331665e-02" rms="9.9251382052898407e-02" purity="9.8955404758453369e-01" nType="-99"/>
        </Node>
        <Node pos="r" depth="1" NCoef="0" IVar="9" Cut="8.7661705017089844e+01" cType="1" res="1.6201563179492950e-02" rms="3.2209444046020508e-01" purity="6.1994040012359619e-01" nType="0">
          <Node pos="l" depth="2" NCoef="0" IVar="-1" Cut="0.0000000000000000e+00" cType="1" res="-3.6394859198480844e-03" rms="3.7676721811294556e-01" purity="2.0253480970859528e-01" nType="-99"/>
          <Node pos="r" depth="2" NCoef="0" IVar="-1" Cut="0.0000000000000000e+00" cType="1" res="1.4401566237211227e-02" rms="2.9624107480049133e-01" purity="7.8997886180877686e-01" nType="-99"/>
        </Node>
      </Node>
    </BinaryTree>
    <BinaryTree type="DecisionTree" boostWeight="1.0000000000000000e+00" itree="59">
      <Node pos="s" depth="0" NCoef="0" IVar="0" Cut="3.0950964355468750e+02" cType="1" res="-8.5922848666086793e-04" rms="2.9989263415336609e-01" purity="4.9852848052978516e-01" nType="0">
        <Node pos="l" depth="1" NCoef="0" IVar="0" Cut="6.5645118713378906e+01" cType="1" res="-6.0166600160300732e-03" rms="3.4076321125030518e-01" purity="3.4195691347122192e-01" nType="0">
          <Node pos="l" depth="2" NCoef="0" IVar="-1" Cut="0.0000000000000000e+00" cType="1" res="-1.7537804320454597e-02" rms="2.4166285991668701e-01" purity="6.4980156719684601e-02" nType="-99"/>
          <Node pos="r" depth="2" NCoef="0" IVar="-1" Cut="0.0000000000000000e+00" cType="1" res="6.3052843324840069e-04" rms="3.6836066842079163e-01" purity="4.3698522448539734e-01" nType="-99"/>
        </Node>
        <Node pos="r" depth="1" NCoef="0" IVar="-1" Cut="0.0000000000000000e+00" cType="1" res="3.5982675850391388e-02" rms="8.3090484142303467e-02" purity="9.9294215440750122e-01" nType="-99"/>
      </Node>
    </BinaryTree>
    <BinaryTree type="DecisionTree" boostWeight="1.0000000000000000e+00" itree="60">
      <Node pos="s" depth="0" NCoef="0" IVar="0" Cut="2.6969833374023438e+02" cType="1" res="1.1341610224917531e-03" rms="3.0293658375740051e-01" purity="4.9894157052040100e-01" nType="0">
        <Node pos="l" depth="1" NCoef="0" IVar="0" Cut="1.6482434082031250e+02" cType="1" res="-4.1104014962911606e-03" rms="3.5017636418342590e-01" purity="3.0935969948768616e-01" nType="0">
          <Node pos="l" depth="2" NCoef="0" IVar="-1" Cut="0.0000000000000000e+00" cType="1" res="1.2831412022933364e-03" rms="3.4699454903602600e-01" purity="1.9048683345317841e-01" nType="-99"/>
          <Node pos="r" depth="2" NCoef="0" IVar="-1" Cut="0.0000000000000000e+00" cType="1" res="-1.5015653334558010e-02" rms="3.6159953474998474e-01" purity="8.0799299478530884e-01" nType="-99"/>
        </Node>
        <Node pos="r" depth="1" NCoef="0" IVar="1" Cut="1.0708274841308594e+02" cType="1" res="1.4626359567046165e-02" rms="1.1020591109991074e-01" purity="9.8666125535964966e-01" nType="0">
          <Node pos="l" depth="2" NCoef="0" IVar="-1" Cut="0.0000000000000000e+00" cType="1" res="2.8795504942536354e-02" rms="1.1875069141387939e-01" purity="9.8410743474960327e-01" nType="-99"/>
          <Node pos="r" depth="2" NCoef="0" IVar="-1" Cut="0.0000000000000000e+00" cType="1" res="2.7808789163827896e-02" rms="1.0140112787485123e-01" purity="9.8907816410064697e-01" nType="-99"/>
        </Node>
      </Node>
    </BinaryTree>
    <BinaryTree type="DecisionTree" boostWeight="1.0000000000000000e+00" itree="61">
      <Node pos="s" depth="0" NCoef="0" IVar="4" Cut="2.0223643779754639e+00" cType="1" res="1.3736998662352562e-03" rms="3.0177670717239380e-01" purity="5.0147086381912231e-01" nType="0">
        <Node pos="l" depth="1" NCoef="0" IVar="1" Cut="4.8249351501464844e+01" cType="1" res="-1.8725756555795670e-02" rms="2.9421514272689819e-01" purity="1.8183772265911102e-01" nType="0">
          <Node pos="l" depth="2" NCoef="0" IVar="-1" Cut="0.0000000000000000e+00" cType="1" res="-5.6038261391222477e-03" rms="2.8306952118873596e-01" purity="1.7876942455768585e-01" nType="-99"/>
          <Node pos="r" depth="2" NCoef="0" IVar="-1" Cut="0.0000000000000000e+00" cType="1" res="-1.8708376213908195e-02" rms="3.2164976000785828e-01" purity="1.9023188948631287e-01" nType="-99"/>
        </Node>
        <Node pos="r" depth="1" NCoef="0" IVar="7" Cut="3.3921370506286621e+00" cType="1" res="5.1542902365326881e-03" rms="3.0302897095680237e-01" purity="5.6159198284149170e-01" nType="0">
          <Node pos="l" depth="2" NCoef="0" IVar="-1" Cut="0.0000000000000000e+00" cType="1" res="5.3751980885863304e-04" rms="2.9745894670486450e-01" purity="5.3714674711227417e-01" nType="-99"/>
          <Node pos="r" depth="2" NCoef="0" IVar="-1" Cut="0.0000000000000000e+00" cType="1" res="8.5317110642790794e-03" rms="3.2007351517677307e-01" purity="6.4095807075500488e-01" nType="-99"/>
        </Node>
      </Node>
    </BinaryTree>
    <BinaryTree type="DecisionTree" boostWeight="1.0000000000000000e+00" itree="62">
      <Node pos="s" depth="0" NCoef="0" IVar="4" Cut="1.5059422254562378e+00" cType="1" res="6.5859296591952443e-04" rms="3.0198252201080322e-01" purity="5.0093442201614380e-01" nType="0">
        <Node pos="l" depth="1" NCoef="0" IVar="4" Cut="1.2603663206100464e+00" cType="1" res="-2.5915756821632385e-02" rms="2.7609813213348389e-01" purity="1.2783090770244598e-01" nType="0">
          <Node pos="l" depth="2" NCoef="0" IVar="-1" Cut="0.0000000000000000e+00" cType="1" res="-1.8688187003135681e-02" rms="2.6859292387962341e-01" purity="1.1044112592935562e-01" nType="-99"/>
          <Node pos="r" depth="2" NCoef="0" IVar="-1" Cut="0.0000000000000000e+00" cType="1" res="-7.7069872058928013e-03" rms="2.8885969519615173e-01" purity="1.5936371684074402e-01" nType="-99"/>
        </Node>
        <Node pos="r" depth="1" NCoef="0" IVar="7" Cut="3.8776216506958008e+00" cType="1" res="2.7047356124967337e-03" rms="3.0378776788711548e-01" purity="5.2966225147247314e-01" nType="0">
          <Node pos="l" depth="2" NCoef="0" IVar="-1" Cut="0.0000000000000000e+00" cType="1" res="4.7890716814436018e-04" rms="3.0008649826049805e-01" purity="5.2677279710769653e-01" nType="-99"/>
          <Node pos="r" depth="2" NCoef="0" IVar="-1" Cut="0.0000000000000000e+00" cType="1" res="1.0365772992372513e-02" rms="3.4808221459388733e-01" purity="5.6777495145797729e-01" nType="-99"/>
        </Node>
      </Node>
    </BinaryTree>
    <BinaryTree type="DecisionTree" boostWeight="1.0000000000000000e+00" itree="63">
      <Node pos="s" depth="0" NCoef="0" IVar="7" Cut="3.0532031059265137e+00" cType="1" res="-7.8977219527587295e-04" rms="3.0194163322448730e-01" purity="4.9894177913665771e-01" nType="0">
        <Node pos="l" depth="1" NCoef="0" IVar="9" Cut="2.5348924255371094e+02" cType="1" res="-1.0459902696311474e-02" rms="3.0282965302467346e-01" purity="2.7392631769180298e-01" nType="0">
